<?xml version="1.0"?>
<opencv_storage>
<haarcascade_umist2_2 type_id="opencv-haar-classifier">
  <size>
    18 22</size>
  <stages>
    <_>
      <!-- stage 0 -->
      <trees>
        <_>
          <!-- tree 0 -->
          <_>
            <!-- root node -->
            <feature>
              <rects>
                <_>
                  1 10 16 5 -1.</_>
                <_>
                  5 10 8 5 2.</_></rects>
              <tilted>0</tilted></feature>
            <threshold>0.0404962599277496</threshold>
            <left_node>1</left_node>
            <right_val>0.7240083813667297</right_val></_>
          <_>
            <!-- node 1 -->
            <feature>
              <rects>
                <_>
                  0 0 10 6 -1.</_>
                <_>
                  0 0 5 3 2.</_>
                <_>
                  5 3 5 3 2.</_></rects>
              <tilted>0</tilted></feature>
            <threshold>0.0422557592391968</threshold>
            <left_val>-0.8678122758865356</left_val>
            <right_val>0.5607935786247253</right_val></_></_>
        <_>
          <!-- tree 1 -->
          <_>
            <!-- root node -->
            <feature>
              <rects>
                <_>
                  0 0 18 2 -1.</_>
                <_>
                  6 0 6 2 3.</_></rects>
              <tilted>0</tilted></feature>
            <threshold>-0.0321481712162495</threshold>
            <left_val>0.7263767123222351</left_val>
            <right_node>1</right_node></_>
          <_>
            <!-- node 1 -->
            <feature>
              <rects>
                <_>
                  5 11 8 10 -1.</_>
                <_>
                  5 16 8 5 2.</_></rects>
              <tilted>0</tilted></feature>
            <threshold>-0.0145771102979779</threshold>
            <left_val>0.4600811898708344</left_val>
            <right_val>-0.7565357089042664</right_val></_></_>
        <_>
          <!-- tree 2 -->
          <_>
            <!-- root node -->
            <feature>
              <rects>
                <_>
                  0 1 6 12 -1.</_>
                <_>
                  0 1 3 6 2.</_>
                <_>
                  3 7 3 6 2.</_></rects>
              <tilted>0</tilted></feature>
            <threshold>0.0424027107656002</threshold>
            <left_node>1</left_node>
            <right_val>0.6700447797775269</right_val></_>
          <_>
            <!-- node 1 -->
            <feature>
              <rects>
                <_>
                  3 5 10 8 -1.</_>
                <_>
                  3 5 5 4 2.</_>
                <_>
                  8 9 5 4 2.</_></rects>
              <tilted>0</tilted></feature>
            <threshold>0.0486001782119274</threshold>
            <left_val>-0.7300503849983215</left_val>
            <right_val>0.4745725095272064</right_val></_></_>
        <_>
          <!-- tree 3 -->
          <_>
            <!-- root node -->
            <feature>
              <rects>
                <_>
                  10 12 8 10 -1.</_>
                <_>
                  14 12 4 5 2.</_>
                <_>
                  10 17 4 5 2.</_></rects>
              <tilted>0</tilted></feature>
            <threshold>-0.0363397002220154</threshold>
            <left_val>0.3513163924217224</left_val>
            <right_node>1</right_node></_>
          <_>
            <!-- node 1 -->
            <feature>
              <rects>
                <_>
                  6 3 10 8 -1.</_>
                <_>
                  11 3 5 4 2.</_>
                <_>
                  6 7 5 4 2.</_></rects>
              <tilted>0</tilted></feature>
            <threshold>0.0247910209000111</threshold>
            <left_val>-0.2014115005731583</left_val>
            <right_val>0.3026146888732910</right_val></_></_>
        <_>
          <!-- tree 4 -->
          <_>
            <!-- root node -->
            <feature>
              <rects>
                <_>
                  6 13 3 6 -1.</_>
                <_>
                  4 15 3 2 3.</_></rects>
              <tilted>1</tilted></feature>
            <threshold>-0.0246571302413940</threshold>
            <left_val>0.4049392938613892</left_val>
            <right_node>1</right_node></_>
          <_>
            <!-- node 1 -->
            <feature>
              <rects>
                <_>
                  8 8 2 4 -1.</_>
                <_>
                  8 10 2 2 2.</_></rects>
              <tilted>0</tilted></feature>
            <threshold>7.0872609503567219e-03</threshold>
            <left_val>-0.6642106175422668</left_val>
            <right_val>0.2066719979047775</right_val></_></_>
        <_>
          <!-- tree 5 -->
          <_>
            <!-- root node -->
            <feature>
              <rects>
                <_>
                  6 0 10 2 -1.</_>
                <_>
                  6 1 10 1 2.</_></rects>
              <tilted>0</tilted></feature>
            <threshold>-3.1839469447731972e-03</threshold>
            <left_val>0.3705027103424072</left_val>
            <right_node>1</right_node></_>
          <_>
            <!-- node 1 -->
            <feature>
              <rects>
                <_>
                  5 3 10 4 -1.</_>
                <_>
                  5 3 5 4 2.</_></rects>
              <tilted>0</tilted></feature>
            <threshold>-0.0528629794716835</threshold>
            <left_val>0.5235875844955444</left_val>
            <right_val>-0.1700752973556519</right_val></_></_></trees>
      <stage_threshold>-2.1734790802001953</stage_threshold>
      <parent>-1</parent>
      <next>-1</next></_>
    <_>
      <!-- stage 1 -->
      <trees>
        <_>
          <!-- tree 0 -->
          <_>
            <!-- root node -->
            <feature>
              <rects>
                <_>
                  0 0 10 8 -1.</_>
                <_>
                  0 0 5 4 2.</_>
                <_>
                  5 4 5 4 2.</_></rects>
              <tilted>0</tilted></feature>
            <threshold>0.0296847000718117</threshold>
            <left_node>1</left_node>
            <right_val>0.7373418211936951</right_val></_>
          <_>
            <!-- node 1 -->
            <feature>
              <rects>
                <_>
                  8 6 4 6 -1.</_>
                <_>
                  8 6 2 6 2.</_></rects>
              <tilted>1</tilted></feature>
            <threshold>-0.0237466506659985</threshold>
            <left_val>0.2135954052209854</left_val>
            <right_val>-0.8641440868377686</right_val></_></_>
        <_>
          <!-- tree 1 -->
          <_>
            <!-- root node -->
            <feature>
              <rects>
                <_>
                  10 12 8 10 -1.</_>
                <_>
                  14 12 4 5 2.</_>
                <_>
                  10 17 4 5 2.</_></rects>
              <tilted>0</tilted></feature>
            <threshold>-0.0226580705493689</threshold>
            <left_val>0.5466797947883606</left_val>
            <right_node>1</right_node></_>
          <_>
            <!-- node 1 -->
            <feature>
              <rects>
                <_>
                  10 4 6 8 -1.</_>
                <_>
                  12 6 2 8 3.</_></rects>
              <tilted>1</tilted></feature>
            <threshold>0.0526070594787598</threshold>
            <left_val>-0.2415958046913147</left_val>
            <right_val>0.5788037180900574</right_val></_></_>
        <_>
          <!-- tree 2 -->
          <_>
            <!-- root node -->
            <feature>
              <rects>
                <_>
                  3 0 12 4 -1.</_>
                <_>
                  3 1 12 2 2.</_></rects>
              <tilted>0</tilted></feature>
            <threshold>-8.6131487041711807e-03</threshold>
            <left_val>0.4488283991813660</left_val>
            <right_node>1</right_node></_>
          <_>
            <!-- node 1 -->
            <feature>
              <rects>
                <_>
                  3 14 5 3 -1.</_>
                <_>
                  2 15 5 1 3.</_></rects>
              <tilted>1</tilted></feature>
            <threshold>-0.0213680807501078</threshold>
            <left_val>0.5505657196044922</left_val>
            <right_val>-0.7091560959815979</right_val></_></_>
        <_>
          <!-- tree 3 -->
          <_>
            <!-- root node -->
            <feature>
              <rects>
                <_>
                  6 11 12 4 -1.</_>
                <_>
                  6 11 6 4 2.</_></rects>
              <tilted>0</tilted></feature>
            <threshold>0.1156696006655693</threshold>
            <left_val>-0.0475791692733765</left_val>
            <right_node>1</right_node></_>
          <_>
            <!-- node 1 -->
            <feature>
              <rects>
                <_>
                  4 7 10 12 -1.</_>
                <_>
                  4 11 10 4 3.</_></rects>
              <tilted>0</tilted></feature>
            <threshold>0.0510898195207119</threshold>
            <left_val>-0.5041137933731079</left_val>
            <right_val>0.3937109112739563</right_val></_></_>
        <_>
          <!-- tree 4 -->
          <_>
            <!-- root node -->
            <feature>
              <rects>
                <_>
                  0 11 12 4 -1.</_>
                <_>
                  6 11 6 4 2.</_></rects>
              <tilted>0</tilted></feature>
            <threshold>7.3048779740929604e-03</threshold>
            <left_val>-0.6805223226547241</left_val>
            <right_node>1</right_node></_>
          <_>
            <!-- node 1 -->
            <feature>
              <rects>
                <_>
                  4 7 10 12 -1.</_>
                <_>
                  4 11 10 4 3.</_></rects>
              <tilted>0</tilted></feature>
            <threshold>0.0484316684305668</threshold>
            <left_val>-0.1965254992246628</left_val>
            <right_val>0.6841768026351929</right_val></_></_>
        <_>
          <!-- tree 5 -->
          <_>
            <!-- root node -->
            <feature>
              <rects>
                <_>
                  8 9 2 4 -1.</_>
                <_>
                  8 10 2 2 2.</_></rects>
              <tilted>0</tilted></feature>
            <threshold>2.4828340392559767e-03</threshold>
            <left_node>1</left_node>
            <right_val>0.5828983783721924</right_val></_>
          <_>
            <!-- node 1 -->
            <feature>
              <rects>
                <_>
                  6 10 8 1 -1.</_>
                <_>
                  8 10 4 1 2.</_></rects>
              <tilted>0</tilted></feature>
            <threshold>3.0572179239243269e-03</threshold>
            <left_val>-0.1691087037324905</left_val>
            <right_val>0.3185738921165466</right_val></_></_>
        <_>
          <!-- tree 6 -->
          <_>
            <!-- root node -->
            <feature>
              <rects>
                <_>
                  7 0 6 6 -1.</_>
                <_>
                  9 2 2 6 3.</_></rects>
              <tilted>1</tilted></feature>
            <threshold>0.0802650898694992</threshold>
            <left_node>1</left_node>
            <right_val>0.7400832176208496</right_val></_>
          <_>
            <!-- node 1 -->
            <feature>
              <rects>
                <_>
                  0 1 6 12 -1.</_>
                <_>
                  0 1 3 6 2.</_>
                <_>
                  3 7 3 6 2.</_></rects>
              <tilted>0</tilted></feature>
            <threshold>0.0572200305759907</threshold>
            <left_val>-0.5324668884277344</left_val>
            <right_val>0.3996317088603973</right_val></_></_>
        <_>
          <!-- tree 7 -->
          <_>
            <!-- root node -->
            <feature>
              <rects>
                <_>
                  5 9 8 4 -1.</_>
                <_>
                  9 9 4 2 2.</_>
                <_>
                  5 11 4 2 2.</_></rects>
              <tilted>0</tilted></feature>
            <threshold>-7.9520121216773987e-03</threshold>
            <left_node>1</left_node>
            <right_val>-0.2426903992891312</right_val></_>
          <_>
            <!-- node 1 -->
            <feature>
              <rects>
                <_>
                  10 6 3 4 -1.</_>
                <_>
                  11 7 1 4 3.</_></rects>
              <tilted>1</tilted></feature>
            <threshold>-5.9573492035269737e-03</threshold>
            <left_val>0.4075866043567657</left_val>
            <right_val>-0.1937278956174850</right_val></_></_></trees>
      <stage_threshold>-2.3529899120330811</stage_threshold>
      <parent>0</parent>
      <next>-1</next></_>
    <_>
      <!-- stage 2 -->
      <trees>
        <_>
          <!-- tree 0 -->
          <_>
            <!-- root node -->
            <feature>
              <rects>
                <_>
                  0 0 8 12 -1.</_>
                <_>
                  0 0 4 6 2.</_>
                <_>
                  4 6 4 6 2.</_></rects>
              <tilted>0</tilted></feature>
            <threshold>0.0496211014688015</threshold>
            <left_node>1</left_node>
            <right_val>0.6242501139640808</right_val></_>
          <_>
            <!-- node 1 -->
            <feature>
              <rects>
                <_>
                  0 3 18 13 -1.</_>
                <_>
                  6 3 6 13 3.</_></rects>
              <tilted>0</tilted></feature>
            <threshold>0.1926033049821854</threshold>
            <left_val>-0.7213888168334961</left_val>
            <right_val>0.3270883858203888</right_val></_></_>
        <_>
          <!-- tree 1 -->
          <_>
            <!-- root node -->
            <feature>
              <rects>
                <_>
                  10 12 8 10 -1.</_>
                <_>
                  14 12 4 5 2.</_>
                <_>
                  10 17 4 5 2.</_></rects>
              <tilted>0</tilted></feature>
            <threshold>-0.0372764691710472</threshold>
            <left_node>1</left_node>
            <right_val>-0.2539958059787750</right_val></_>
          <_>
            <!-- node 1 -->
            <feature>
              <rects>
                <_>
                  1 0 16 2 -1.</_>
                <_>
                  5 0 8 2 2.</_></rects>
              <tilted>0</tilted></feature>
            <threshold>-0.0389268100261688</threshold>
            <left_val>0.5713639259338379</left_val>
            <right_val>-0.3526417911052704</right_val></_></_>
        <_>
          <!-- tree 2 -->
          <_>
            <!-- root node -->
            <feature>
              <rects>
                <_>
                  0 12 8 10 -1.</_>
                <_>
                  0 12 4 5 2.</_>
                <_>
                  4 17 4 5 2.</_></rects>
              <tilted>0</tilted></feature>
            <threshold>-0.0292549300938845</threshold>
            <left_val>0.5630924105644226</left_val>
            <right_node>1</right_node></_>
          <_>
            <!-- node 1 -->
            <feature>
              <rects>
                <_>
                  0 2 12 17 -1.</_>
                <_>
                  6 2 6 17 2.</_></rects>
              <tilted>0</tilted></feature>
            <threshold>0.1108295023441315</threshold>
            <left_val>-0.6380574107170105</left_val>
            <right_val>0.1377090960741043</right_val></_></_>
        <_>
          <!-- tree 3 -->
          <_>
            <!-- root node -->
            <feature>
              <rects>
                <_>
                  14 0 4 3 -1.</_>
                <_>
                  13 1 4 1 3.</_></rects>
              <tilted>1</tilted></feature>
            <threshold>-0.0152763901278377</threshold>
            <left_val>0.5241783261299133</left_val>
            <right_node>1</right_node></_>
          <_>
            <!-- node 1 -->
            <feature>
              <rects>
                <_>
                  14 4 1 10 -1.</_>
                <_>
                  14 4 1 5 2.</_></rects>
              <tilted>1</tilted></feature>
            <threshold>-0.0166964493691921</threshold>
            <left_val>0.1343221962451935</left_val>
            <right_val>-0.1290729045867920</right_val></_></_>
        <_>
          <!-- tree 4 -->
          <_>
            <!-- root node -->
            <feature>
              <rects>
                <_>
                  4 0 3 4 -1.</_>
                <_>
                  5 1 1 4 3.</_></rects>
              <tilted>1</tilted></feature>
            <threshold>-0.0141713600605726</threshold>
            <left_val>0.4622637033462524</left_val>
            <right_node>1</right_node></_>
          <_>
            <!-- node 1 -->
            <feature>
              <rects>
                <_>
                  4 4 10 1 -1.</_>
                <_>
                  4 4 5 1 2.</_></rects>
              <tilted>1</tilted></feature>
            <threshold>-0.0298476703464985</threshold>
            <left_val>0.1279885023832321</left_val>
            <right_val>-0.6257547140121460</right_val></_></_>
        <_>
          <!-- tree 5 -->
          <_>
            <!-- root node -->
            <feature>
              <rects>
                <_>
                  5 11 8 10 -1.</_>
                <_>
                  5 16 8 5 2.</_></rects>
              <tilted>0</tilted></feature>
            <threshold>-0.0123211899772286</threshold>
            <left_node>1</left_node>
            <right_val>-0.5885511040687561</right_val></_>
          <_>
            <!-- node 1 -->
            <feature>
              <rects>
                <_>
                  9 2 2 2 -1.</_>
                <_>
                  9 3 2 1 2.</_></rects>
              <tilted>0</tilted></feature>
            <threshold>2.5278130124206655e-05</threshold>
            <left_val>-0.2672117948532104</left_val>
            <right_val>0.1121399030089378</right_val></_></_>
        <_>
          <!-- tree 6 -->
          <_>
            <!-- root node -->
            <feature>
              <rects>
                <_>
                  3 8 9 3 -1.</_>
                <_>
                  6 8 3 3 3.</_></rects>
              <tilted>0</tilted></feature>
            <threshold>-0.0126178199425340</threshold>
            <left_val>0.5832272171974182</left_val>
            <right_node>1</right_node></_>
          <_>
            <!-- node 1 -->
            <feature>
              <rects>
                <_>
                  9 7 4 4 -1.</_>
                <_>
                  8 8 4 2 2.</_></rects>
              <tilted>1</tilted></feature>
            <threshold>0.0144184501841664</threshold>
            <left_val>-0.3455398082733154</left_val>
            <right_val>0.5338872075080872</right_val></_></_>
        <_>
          <!-- tree 7 -->
          <_>
            <!-- root node -->
            <feature>
              <rects>
                <_>
                  12 0 6 3 -1.</_>
                <_>
                  11 1 6 1 3.</_></rects>
              <tilted>1</tilted></feature>
            <threshold>0.0180586595088243</threshold>
            <left_val>-0.0741373375058174</left_val>
            <right_node>1</right_node></_>
          <_>
            <!-- node 1 -->
            <feature>
              <rects>
                <_>
                  16 9 2 8 -1.</_>
                <_>
                  17 9 1 4 2.</_>
                <_>
                  16 13 1 4 2.</_></rects>
              <tilted>0</tilted></feature>
            <threshold>6.6558709368109703e-03</threshold>
            <left_val>-0.0593451894819736</left_val>
            <right_val>0.4127042889595032</right_val></_></_>
        <_>
          <!-- tree 8 -->
          <_>
            <!-- root node -->
            <feature>
              <rects>
                <_>
                  0 10 2 8 -1.</_>
                <_>
                  0 10 1 4 2.</_>
                <_>
                  1 14 1 4 2.</_></rects>
              <tilted>0</tilted></feature>
            <threshold>-6.2261112034320831e-03</threshold>
            <left_val>0.5809975862503052</left_val>
            <right_node>1</right_node></_>
          <_>
            <!-- node 1 -->
            <feature>
              <rects>
                <_>
                  6 0 4 6 -1.</_>
                <_>
                  7 1 2 6 2.</_></rects>
              <tilted>1</tilted></feature>
            <threshold>-0.0357234999537468</threshold>
            <left_val>0.5823904275894165</left_val>
            <right_val>-0.2955141067504883</right_val></_></_>
        <_>
          <!-- tree 9 -->
          <_>
            <!-- root node -->
            <feature>
              <rects>
                <_>
                  1 12 16 10 -1.</_>
                <_>
                  5 12 8 10 2.</_></rects>
              <tilted>0</tilted></feature>
            <threshold>0.0705479979515076</threshold>
            <left_node>1</left_node>
            <right_val>0.3942477107048035</right_val></_>
          <_>
            <!-- node 1 -->
            <feature>
              <rects>
                <_>
                  0 20 18 2 -1.</_>
                <_>
                  6 20 6 2 3.</_></rects>
              <tilted>0</tilted></feature>
            <threshold>0.0452929511666298</threshold>
            <left_val>-0.0575756989419460</left_val>
            <right_val>0.3899880051612854</right_val></_></_>
        <_>
          <!-- tree 10 -->
          <_>
            <!-- root node -->
            <feature>
              <rects>
                <_>
                  5 6 8 6 -1.</_>
                <_>
                  5 6 4 3 2.</_>
                <_>
                  9 9 4 3 2.</_></rects>
              <tilted>0</tilted></feature>
            <threshold>0.0203981306403875</threshold>
            <left_node>1</left_node>
            <right_val>0.3675575852394104</right_val></_>
          <_>
            <!-- node 1 -->
            <feature>
              <rects>
                <_>
                  6 0 3 6 -1.</_>
                <_>
                  7 1 1 6 3.</_></rects>
              <tilted>1</tilted></feature>
            <threshold>-0.0562205016613007</threshold>
            <left_val>0.7346442937850952</left_val>
            <right_val>-0.3394665122032166</right_val></_></_>
        <_>
          <!-- tree 11 -->
          <_>
            <!-- root node -->
            <feature>
              <rects>
                <_>
                  10 9 6 2 -1.</_>
                <_>
                  10 9 3 2 2.</_></rects>
              <tilted>1</tilted></feature>
            <threshold>9.6651731291785836e-04</threshold>
            <left_node>1</left_node>
            <right_val>0.1008844003081322</right_val></_>
          <_>
            <!-- node 1 -->
            <feature>
              <rects>
                <_>
                  14 1 4 6 -1.</_>
                <_>
                  12 3 4 2 3.</_></rects>
              <tilted>1</tilted></feature>
            <threshold>0.0748574435710907</threshold>
            <left_val>-0.0965720564126968</left_val>
            <right_val>0.7038673758506775</right_val></_></_>
        <_>
          <!-- tree 12 -->
          <_>
            <!-- root node -->
            <feature>
              <rects>
                <_>
                  1 1 14 15 -1.</_>
                <_>
                  8 1 7 15 2.</_></rects>
              <tilted>0</tilted></feature>
            <threshold>0.1490868031978607</threshold>
            <left_node>1</left_node>
            <right_val>0.2932749092578888</right_val></_>
          <_>
            <!-- node 1 -->
            <feature>
              <rects>
                <_>
                  5 0 6 4 -1.</_>
                <_>
                  7 2 2 4 3.</_></rects>
              <tilted>1</tilted></feature>
            <threshold>0.0877131968736649</threshold>
            <left_val>-0.4386009871959686</left_val>
            <right_val>0.7407932281494141</right_val></_></_></trees>
      <stage_threshold>-2.0393691062927246</stage_threshold>
      <parent>1</parent>
      <next>-1</next></_>
    <_>
      <!-- stage 3 -->
      <trees>
        <_>
          <!-- tree 0 -->
          <_>
            <!-- root node -->
            <feature>
              <rects>
                <_>
                  0 0 18 3 -1.</_>
                <_>
                  6 1 6 1 9.</_></rects>
              <tilted>0</tilted></feature>
            <threshold>-0.1086800023913383</threshold>
            <left_val>0.6831477880477905</left_val>
            <right_node>1</right_node></_>
          <_>
            <!-- node 1 -->
            <feature>
              <rects>
                <_>
                  1 10 16 5 -1.</_>
                <_>
                  5 10 8 5 2.</_></rects>
              <tilted>0</tilted></feature>
            <threshold>0.0668185427784920</threshold>
            <left_val>-0.7012987136840820</left_val>
            <right_val>0.1240321025252342</right_val></_></_>
        <_>
          <!-- tree 1 -->
          <_>
            <!-- root node -->
            <feature>
              <rects>
                <_>
                  5 7 8 12 -1.</_>
                <_>
                  5 10 8 6 2.</_></rects>
              <tilted>0</tilted></feature>
            <threshold>0.0220237001776695</threshold>
            <left_node>1</left_node>
            <right_val>0.3056542873382568</right_val></_>
          <_>
            <!-- node 1 -->
            <feature>
              <rects>
                <_>
                  15 16 2 4 -1.</_>
                <_>
                  15 16 1 4 2.</_></rects>
              <tilted>1</tilted></feature>
            <threshold>3.3794681075960398e-04</threshold>
            <left_val>-0.2170448005199432</left_val>
            <right_val>0.1186126023530960</right_val></_></_>
        <_>
          <!-- tree 2 -->
          <_>
            <!-- root node -->
            <feature>
              <rects>
                <_>
                  0 10 6 12 -1.</_>
                <_>
                  0 10 3 6 2.</_>
                <_>
                  3 16 3 6 2.</_></rects>
              <tilted>0</tilted></feature>
            <threshold>-0.0287852697074413</threshold>
            <left_node>1</left_node>
            <right_val>-0.5628697872161865</right_val></_>
          <_>
            <!-- node 1 -->
            <feature>
              <rects>
                <_>
                  2 0 4 2 -1.</_>
                <_>
                  2 0 2 2 2.</_></rects>
              <tilted>1</tilted></feature>
            <threshold>0.0293648298829794</threshold>
            <left_val>-0.0931446999311447</left_val>
            <right_val>0.7900295853614807</right_val></_></_>
        <_>
          <!-- tree 3 -->
          <_>
            <!-- root node -->
            <feature>
              <rects>
                <_>
                  6 3 12 12 -1.</_>
                <_>
                  6 3 6 12 2.</_></rects>
              <tilted>0</tilted></feature>
            <threshold>0.0376693308353424</threshold>
            <left_node>1</left_node>
            <right_val>0.1331565976142883</right_val></_>
          <_>
            <!-- node 1 -->
            <feature>
              <rects>
                <_>
                  12 0 6 6 -1.</_>
                <_>
                  10 2 6 2 3.</_></rects>
              <tilted>1</tilted></feature>
            <threshold>0.0801115632057190</threshold>
            <left_val>-0.1234024986624718</left_val>
            <right_val>0.5211384892463684</right_val></_></_>
        <_>
          <!-- tree 4 -->
          <_>
            <!-- root node -->
            <feature>
              <rects>
                <_>
                  1 3 12 10 -1.</_>
                <_>
                  7 3 6 10 2.</_></rects>
              <tilted>0</tilted></feature>
            <threshold>0.0632806569337845</threshold>
            <left_node>1</left_node>
            <right_val>0.2630099058151245</right_val></_>
          <_>
            <!-- node 1 -->
            <feature>
              <rects>
                <_>
                  5 0 4 5 -1.</_>
                <_>
                  5 0 2 5 2.</_></rects>
              <tilted>1</tilted></feature>
            <threshold>-0.0716351717710495</threshold>
            <left_val>0.7637302279472351</left_val>
            <right_val>-0.6015099287033081</right_val></_></_>
        <_>
          <!-- tree 5 -->
          <_>
            <!-- root node -->
            <feature>
              <rects>
                <_>
                  4 13 10 8 -1.</_>
                <_>
                  4 17 10 4 2.</_></rects>
              <tilted>0</tilted></feature>
            <threshold>-3.3622909541008994e-05</threshold>
            <left_node>1</left_node>
            <right_val>-0.7127094864845276</right_val></_>
          <_>
            <!-- node 1 -->
            <feature>
              <rects>
                <_>
                  14 0 4 6 -1.</_>
                <_>
                  12 2 4 2 3.</_></rects>
              <tilted>1</tilted></feature>
            <threshold>0.0752560570836067</threshold>
            <left_val>-0.1863213926553726</left_val>
            <right_val>0.6773684024810791</right_val></_></_>
        <_>
          <!-- tree 6 -->
          <_>
            <!-- root node -->
            <feature>
              <rects>
                <_>
                  4 0 6 4 -1.</_>
                <_>
                  6 2 2 4 3.</_></rects>
              <tilted>1</tilted></feature>
            <threshold>-0.0754864066839218</threshold>
            <left_val>0.7737336754798889</left_val>
            <right_node>1</right_node></_>
          <_>
            <!-- node 1 -->
            <feature>
              <rects>
                <_>
                  3 2 14 2 -1.</_>
                <_>
                  3 2 7 2 2.</_></rects>
              <tilted>1</tilted></feature>
            <threshold>-0.0749190673232079</threshold>
            <left_val>0.4315564036369324</left_val>
            <right_val>-0.2469168007373810</right_val></_></_>
        <_>
          <!-- tree 7 -->
          <_>
            <!-- root node -->
            <feature>
              <rects>
                <_>
                  15 0 3 3 -1.</_>
                <_>
                  14 1 3 1 3.</_></rects>
              <tilted>1</tilted></feature>
            <threshold>-0.0185609702020884</threshold>
            <left_val>0.6420707106590271</left_val>
            <right_node>1</right_node></_>
          <_>
            <!-- node 1 -->
            <feature>
              <rects>
                <_>
                  12 8 6 4 -1.</_>
                <_>
                  12 8 3 4 2.</_></rects>
              <tilted>1</tilted></feature>
            <threshold>2.1665700478479266e-04</threshold>
            <left_val>-0.3253546953201294</left_val>
            <right_val>0.1765946000814438</right_val></_></_>
        <_>
          <!-- tree 8 -->
          <_>
            <!-- root node -->
            <feature>
              <rects>
                <_>
                  6 0 6 4 -1.</_>
                <_>
                  8 2 2 4 3.</_></rects>
              <tilted>1</tilted></feature>
            <threshold>0.0683905184268951</threshold>
            <left_node>1</left_node>
            <right_val>0.5774018764495850</right_val></_>
          <_>
            <!-- node 1 -->
            <feature>
              <rects>
                <_>
                  1 16 3 6 -1.</_>
                <_>
                  1 19 3 3 2.</_></rects>
              <tilted>0</tilted></feature>
            <threshold>0.0190840195864439</threshold>
            <left_val>-0.3770836889743805</left_val>
            <right_val>0.2712472975254059</right_val></_></_>
        <_>
          <!-- tree 9 -->
          <_>
            <!-- root node -->
            <feature>
              <rects>
                <_>
                  12 8 6 6 -1.</_>
                <_>
                  12 8 3 6 2.</_></rects>
              <tilted>1</tilted></feature>
            <threshold>0.1083111017942429</threshold>
            <left_node>1</left_node>
            <right_val>-0.7327917218208313</right_val></_>
          <_>
            <!-- node 1 -->
            <feature>
              <rects>
                <_>
                  5 10 8 2 -1.</_>
                <_>
                  7 10 4 2 2.</_></rects>
              <tilted>0</tilted></feature>
            <threshold>0.0114145800471306</threshold>
            <left_val>-0.2409631013870239</left_val>
            <right_val>0.1965558975934982</right_val></_></_>
        <_>
          <!-- tree 10 -->
          <_>
            <!-- root node -->
            <feature>
              <rects>
                <_>
                  6 8 6 6 -1.</_>
                <_>
                  6 8 6 3 2.</_></rects>
              <tilted>1</tilted></feature>
            <threshold>1.8572529370430857e-04</threshold>
            <left_node>1</left_node>
            <right_val>0.2275907993316650</right_val></_>
          <_>
            <!-- node 1 -->
            <feature>
              <rects>
                <_>
                  2 0 11 6 -1.</_>
                <_>
                  2 2 11 2 3.</_></rects>
              <tilted>0</tilted></feature>
            <threshold>-0.0909361466765404</threshold>
            <left_val>0.6722242236137390</left_val>
            <right_val>-0.4536536037921906</right_val></_></_>
        <_>
          <!-- tree 11 -->
          <_>
            <!-- root node -->
            <feature>
              <rects>
                <_>
                  9 8 1 8 -1.</_>
                <_>
                  7 10 1 4 2.</_></rects>
              <tilted>1</tilted></feature>
            <threshold>7.2948997840285301e-03</threshold>
            <left_node>1</left_node>
            <right_val>0.1138975024223328</right_val></_>
          <_>
            <!-- node 1 -->
            <feature>
              <rects>
                <_>
                  10 2 8 7 -1.</_>
                <_>
                  10 2 4 7 2.</_></rects>
              <tilted>1</tilted></feature>
            <threshold>-0.1813579052686691</threshold>
            <left_val>0.5256127119064331</left_val>
            <right_val>-0.1757797002792358</right_val></_></_>
        <_>
          <!-- tree 12 -->
          <_>
            <!-- root node -->
            <feature>
              <rects>
                <_>
                  0 9 1 10 -1.</_>
                <_>
                  0 14 1 5 2.</_></rects>
              <tilted>0</tilted></feature>
            <threshold>0.0179248601198196</threshold>
            <left_node>1</left_node>
            <right_val>0.5067359805107117</right_val></_>
          <_>
            <!-- node 1 -->
            <feature>
              <rects>
                <_>
                  3 16 4 2 -1.</_>
                <_>
                  3 16 4 1 2.</_></rects>
              <tilted>1</tilted></feature>
            <threshold>0.0151283796876669</threshold>
            <left_val>-0.2314424961805344</left_val>
            <right_val>0.5219454765319824</right_val></_></_>
        <_>
          <!-- tree 13 -->
          <_>
            <!-- root node -->
            <feature>
              <rects>
                <_>
                  4 12 10 8 -1.</_>
                <_>
                  4 16 10 4 2.</_></rects>
              <tilted>0</tilted></feature>
            <threshold>-4.4835830340161920e-04</threshold>
            <left_node>1</left_node>
            <right_val>-0.6634013056755066</right_val></_>
          <_>
            <!-- node 1 -->
            <feature>
              <rects>
                <_>
                  8 3 4 2 -1.</_>
                <_>
                  8 4 4 1 2.</_></rects>
              <tilted>0</tilted></feature>
            <threshold>4.8304540541721508e-05</threshold>
            <left_val>-0.3191351890563965</left_val>
            <right_val>0.0632909834384918</right_val></_></_>
        <_>
          <!-- tree 14 -->
          <_>
            <!-- root node -->
            <feature>
              <rects>
                <_>
                  9 7 9 1 -1.</_>
                <_>
                  12 10 3 1 3.</_></rects>
              <tilted>1</tilted></feature>
            <threshold>1.1358689516782761e-03</threshold>
            <left_node>1</left_node>
            <right_val>0.3542988896369934</right_val></_>
          <_>
            <!-- node 1 -->
            <feature>
              <rects>
                <_>
                  6 8 5 4 -1.</_>
                <_>
                  6 8 5 2 2.</_></rects>
              <tilted>1</tilted></feature>
            <threshold>0.0424218587577343</threshold>
            <left_val>0.0810113772749901</left_val>
            <right_val>-0.7897545099258423</right_val></_></_>
        <_>
          <!-- tree 15 -->
          <_>
            <!-- root node -->
            <feature>
              <rects>
                <_>
                  6 8 6 6 -1.</_>
                <_>
                  9 8 3 3 2.</_>
                <_>
                  6 11 3 3 2.</_></rects>
              <tilted>0</tilted></feature>
            <threshold>-7.3618721216917038e-03</threshold>
            <left_node>1</left_node>
            <right_val>-0.3300567865371704</right_val></_>
          <_>
            <!-- node 1 -->
            <feature>
              <rects>
                <_>
                  11 0 4 2 -1.</_>
                <_>
                  13 0 2 1 2.</_>
                <_>
                  11 1 2 1 2.</_></rects>
              <tilted>0</tilted></feature>
            <threshold>4.6473289839923382e-03</threshold>
            <left_val>-0.2465801984071732</left_val>
            <right_val>0.4435043036937714</right_val></_></_>
        <_>
          <!-- tree 16 -->
          <_>
            <!-- root node -->
            <feature>
              <rects>
                <_>
                  7 9 3 6 -1.</_>
                <_>
                  7 9 3 3 2.</_></rects>
              <tilted>1</tilted></feature>
            <threshold>3.1964951631380245e-05</threshold>
            <left_node>1</left_node>
            <right_val>0.3063763082027435</right_val></_>
          <_>
            <!-- node 1 -->
            <feature>
              <rects>
                <_>
                  7 1 4 4 -1.</_>
                <_>
                  8 1 2 4 2.</_></rects>
              <tilted>0</tilted></feature>
            <threshold>-3.6992859095335007e-03</threshold>
            <left_val>-0.8986281752586365</left_val>
            <right_val>0.1913049072027206</right_val></_></_>
        <_>
          <!-- tree 17 -->
          <_>
            <!-- root node -->
            <feature>
              <rects>
                <_>
                  9 15 3 4 -1.</_>
                <_>
                  9 15 3 2 2.</_></rects>
              <tilted>1</tilted></feature>
            <threshold>4.0863449685275555e-03</threshold>
            <left_node>1</left_node>
            <right_val>0.0502354800701141</right_val></_>
          <_>
            <!-- node 1 -->
            <feature>
              <rects>
                <_>
                  5 8 8 14 -1.</_>
                <_>
                  5 8 4 14 2.</_></rects>
              <tilted>0</tilted></feature>
            <threshold>0.0312131103128195</threshold>
            <left_val>-0.2074712961912155</left_val>
            <right_val>0.1439833939075470</right_val></_></_>
        <_>
          <!-- tree 18 -->
          <_>
            <!-- root node -->
            <feature>
              <rects>
                <_>
                  3 0 8 2 -1.</_>
                <_>
                  3 1 8 1 2.</_></rects>
              <tilted>0</tilted></feature>
            <threshold>-4.7741248272359371e-03</threshold>
            <left_val>0.2501341998577118</left_val>
            <right_node>1</right_node></_>
          <_>
            <!-- node 1 -->
            <feature>
              <rects>
                <_>
                  5 2 8 9 -1.</_>
                <_>
                  5 5 8 3 3.</_></rects>
              <tilted>0</tilted></feature>
            <threshold>-9.9537633359432220e-03</threshold>
            <left_val>0.0488677807152271</left_val>
            <right_val>-0.6100823879241943</right_val></_></_>
        <_>
          <!-- tree 19 -->
          <_>
            <!-- root node -->
            <feature>
              <rects>
                <_>
                  5 6 8 6 -1.</_>
                <_>
                  9 6 4 3 2.</_>
                <_>
                  5 9 4 3 2.</_></rects>
              <tilted>0</tilted></feature>
            <threshold>-0.0133091798052192</threshold>
            <left_node>1</left_node>
            <right_val>-0.2178848981857300</right_val></_>
          <_>
            <!-- node 1 -->
            <feature>
              <rects>
                <_>
                  11 14 1 4 -1.</_>
                <_>
                  11 14 1 2 2.</_></rects>
              <tilted>1</tilted></feature>
            <threshold>5.7906127767637372e-04</threshold>
            <left_val>-0.2154086977243423</left_val>
            <right_val>0.0884665772318840</right_val></_></_>
        <_>
          <!-- tree 20 -->
          <_>
            <!-- root node -->
            <feature>
              <rects>
                <_>
                  9 15 4 3 -1.</_>
                <_>
                  9 15 2 3 2.</_></rects>
              <tilted>1</tilted></feature>
            <threshold>2.6614879971020855e-05</threshold>
            <left_node>1</left_node>
            <right_val>0.3198894858360291</right_val></_>
          <_>
            <!-- node 1 -->
            <feature>
              <rects>
                <_>
                  2 8 2 6 -1.</_>
                <_>
                  2 10 2 2 3.</_></rects>
              <tilted>0</tilted></feature>
            <threshold>-3.3784629777073860e-03</threshold>
            <left_val>-0.6379780769348145</left_val>
            <right_val>0.1636344045400620</right_val></_></_>
        <_>
          <!-- tree 21 -->
          <_>
            <!-- root node -->
            <feature>
              <rects>
                <_>
                  7 11 8 1 -1.</_>
                <_>
                  7 11 4 1 2.</_></rects>
              <tilted>0</tilted></feature>
            <threshold>3.5615360829979181e-03</threshold>
            <left_node>1</left_node>
            <right_val>0.0457381904125214</right_val></_>
          <_>
            <!-- node 1 -->
            <feature>
              <rects>
                <_>
                  11 7 6 6 -1.</_>
                <_>
                  13 7 2 6 3.</_></rects>
              <tilted>0</tilted></feature>
            <threshold>0.0105603598058224</threshold>
            <left_val>-0.2041817009449005</left_val>
            <right_val>0.1611316949129105</right_val></_></_>
        <_>
          <!-- tree 22 -->
          <_>
            <!-- root node -->
            <feature>
              <rects>
                <_>
                  0 6 18 12 -1.</_>
                <_>
                  9 6 9 12 2.</_></rects>
              <tilted>0</tilted></feature>
            <threshold>0.1946900933980942</threshold>
            <left_node>1</left_node>
            <right_val>0.2924202084541321</right_val></_>
          <_>
            <!-- node 1 -->
            <feature>
              <rects>
                <_>
                  1 7 6 6 -1.</_>
                <_>
                  3 7 2 6 3.</_></rects>
              <tilted>0</tilted></feature>
            <threshold>0.0243641994893551</threshold>
            <left_val>-0.3162418901920319</left_val>
            <right_val>0.4134416878223419</right_val></_></_>
        <_>
          <!-- tree 23 -->
          <_>
            <!-- root node -->
            <feature>
              <rects>
                <_>
                  0 10 18 4 -1.</_>
                <_>
                  6 10 6 4 3.</_></rects>
              <tilted>0</tilted></feature>
            <threshold>3.8719250005669892e-04</threshold>
            <left_node>1</left_node>
            <right_val>0.0444217398762703</right_val></_>
          <_>
            <!-- node 1 -->
            <feature>
              <rects>
                <_>
                  9 0 4 8 -1.</_>
                <_>
                  9 0 2 8 2.</_></rects>
              <tilted>1</tilted></feature>
            <threshold>-0.0866649225354195</threshold>
            <left_val>0.4119215905666351</left_val>
            <right_val>-0.1867755949497223</right_val></_></_>
        <_>
          <!-- tree 24 -->
          <_>
            <!-- root node -->
            <feature>
              <rects>
                <_>
                  3 11 8 1 -1.</_>
                <_>
                  7 11 4 1 2.</_></rects>
              <tilted>0</tilted></feature>
            <threshold>6.2615628121420741e-04</threshold>
            <left_node>1</left_node>
            <right_val>0.0661857575178146</right_val></_>
          <_>
            <!-- node 1 -->
            <feature>
              <rects>
                <_>
                  6 4 2 2 -1.</_>
                <_>
                  7 4 1 2 2.</_></rects>
              <tilted>0</tilted></feature>
            <threshold>-1.6307809855788946e-03</threshold>
            <left_val>-0.8609570264816284</left_val>
            <right_val>-0.0579365193843842</right_val></_></_></trees>
      <stage_threshold>-2.1198790073394775</stage_threshold>
      <parent>2</parent>
      <next>-1</next></_>
    <_>
      <!-- stage 4 -->
      <trees>
        <_>
          <!-- tree 0 -->
          <_>
            <!-- root node -->
            <feature>
              <rects>
                <_>
                  0 0 18 2 -1.</_>
                <_>
                  6 0 6 2 3.</_></rects>
              <tilted>0</tilted></feature>
            <threshold>-0.0288507696241140</threshold>
            <left_node>1</left_node>
            <right_val>-0.5263527035713196</right_val></_>
          <_>
            <!-- node 1 -->
            <feature>
              <rects>
                <_>
                  0 1 2 21 -1.</_>
                <_>
                  0 8 2 7 3.</_></rects>
              <tilted>0</tilted></feature>
            <threshold>-0.0105760302394629</threshold>
            <left_val>0.7747467160224915</left_val>
            <right_val>-0.2396098971366882</right_val></_></_>
        <_>
          <!-- tree 1 -->
          <_>
            <!-- root node -->
            <feature>
              <rects>
                <_>
                  5 11 8 10 -1.</_>
                <_>
                  5 16 8 5 2.</_></rects>
              <tilted>0</tilted></feature>
            <threshold>-0.0126678701490164</threshold>
            <left_node>1</left_node>
            <right_val>-0.7103828787803650</right_val></_>
          <_>
            <!-- node 1 -->
            <feature>
              <rects>
                <_>
                  0 8 18 12 -1.</_>
                <_>
                  0 14 18 6 2.</_></rects>
              <tilted>0</tilted></feature>
            <threshold>-0.2375236004590988</threshold>
            <left_val>-0.6910725235939026</left_val>
            <right_val>0.1151352003216743</right_val></_></_>
        <_>
          <!-- tree 2 -->
          <_>
            <!-- root node -->
            <feature>
              <rects>
                <_>
                  3 0 12 4 -1.</_>
                <_>
                  3 1 12 2 2.</_></rects>
              <tilted>0</tilted></feature>
            <threshold>-0.0100148702040315</threshold>
            <left_val>0.5497968792915344</left_val>
            <right_node>1</right_node></_>
          <_>
            <!-- node 1 -->
            <feature>
              <rects>
                <_>
                  3 0 6 2 -1.</_>
                <_>
                  3 0 3 1 2.</_>
                <_>
                  6 1 3 1 2.</_></rects>
              <tilted>0</tilted></feature>
            <threshold>7.5994911603629589e-03</threshold>
            <left_val>-0.3392854034900665</left_val>
            <right_val>0.7101364731788635</right_val></_></_>
        <_>
          <!-- tree 3 -->
          <_>
            <!-- root node -->
            <feature>
              <rects>
                <_>
                  1 10 16 6 -1.</_>
                <_>
                  5 10 8 6 2.</_></rects>
              <tilted>0</tilted></feature>
            <threshold>0.0412443913519382</threshold>
            <left_node>1</left_node>
            <right_val>0.2801963090896606</right_val></_>
          <_>
            <!-- node 1 -->
            <feature>
              <rects>
                <_>
                  0 21 18 1 -1.</_>
                <_>
                  6 21 6 1 3.</_></rects>
              <tilted>0</tilted></feature>
            <threshold>-0.0178209599107504</threshold>
            <left_val>0.4178563952445984</left_val>
            <right_val>-0.2343243062496185</right_val></_></_>
        <_>
          <!-- tree 4 -->
          <_>
            <!-- root node -->
            <feature>
              <rects>
                <_>
                  1 10 16 7 -1.</_>
                <_>
                  5 10 8 7 2.</_></rects>
              <tilted>0</tilted></feature>
            <threshold>6.0178619605721906e-05</threshold>
            <left_node>1</left_node>
            <right_val>-0.0516944304108620</right_val></_>
          <_>
            <!-- node 1 -->
            <feature>
              <rects>
                <_>
                  4 2 6 4 -1.</_>
                <_>
                  6 4 2 4 3.</_></rects>
              <tilted>1</tilted></feature>
            <threshold>0.1021836027503014</threshold>
            <left_val>-0.7099527120590210</left_val>
            <right_val>0.6552640199661255</right_val></_></_>
        <_>
          <!-- tree 5 -->
          <_>
            <!-- root node -->
            <feature>
              <rects>
                <_>
                  12 1 6 9 -1.</_>
                <_>
                  14 4 2 3 9.</_></rects>
              <tilted>0</tilted></feature>
            <threshold>0.0819701403379440</threshold>
            <left_val>-0.2540568113327026</left_val>
            <right_node>1</right_node></_>
          <_>
            <!-- node 1 -->
            <feature>
              <rects>
                <_>
                  13 0 5 6 -1.</_>
                <_>
                  11 2 5 2 3.</_></rects>
              <tilted>1</tilted></feature>
            <threshold>-0.0615922287106514</threshold>
            <left_val>0.4523962140083313</left_val>
            <right_val>-0.2162944972515106</right_val></_></_>
        <_>
          <!-- tree 6 -->
          <_>
            <!-- root node -->
            <feature>
              <rects>
                <_>
                  8 8 8 1 -1.</_>
                <_>
                  10 10 4 1 2.</_></rects>
              <tilted>1</tilted></feature>
            <threshold>6.2842460465617478e-05</threshold>
            <left_node>1</left_node>
            <right_val>0.3116663992404938</right_val></_>
          <_>
            <!-- node 1 -->
            <feature>
              <rects>
                <_>
                  2 14 1 2 -1.</_>
                <_>
                  2 15 1 1 2.</_></rects>
              <tilted>0</tilted></feature>
            <threshold>-5.2875660912832245e-05</threshold>
            <left_val>0.3069534897804260</left_val>
            <right_val>-0.6296228170394897</right_val></_></_>
        <_>
          <!-- tree 7 -->
          <_>
            <!-- root node -->
            <feature>
              <rects>
                <_>
                  12 1 6 9 -1.</_>
                <_>
                  14 4 2 3 9.</_></rects>
              <tilted>0</tilted></feature>
            <threshold>-0.0219143796712160</threshold>
            <left_val>0.1395432949066162</left_val>
            <right_node>1</right_node></_>
          <_>
            <!-- node 1 -->
            <feature>
              <rects>
                <_>
                  13 0 5 6 -1.</_>
                <_>
                  11 2 5 2 3.</_></rects>
              <tilted>1</tilted></feature>
            <threshold>-6.9635510444641113e-03</threshold>
            <left_val>0.1033312007784843</left_val>
            <right_val>-0.3011363148689270</right_val></_></_>
        <_>
          <!-- tree 8 -->
          <_>
            <!-- root node -->
            <feature>
              <rects>
                <_>
                  8 9 2 4 -1.</_>
                <_>
                  8 10 2 2 2.</_></rects>
              <tilted>0</tilted></feature>
            <threshold>5.7892018958227709e-05</threshold>
            <left_node>1</left_node>
            <right_val>0.2123456001281738</right_val></_>
          <_>
            <!-- node 1 -->
            <feature>
              <rects>
                <_>
                  8 9 2 4 -1.</_>
                <_>
                  8 10 2 2 2.</_></rects>
              <tilted>0</tilted></feature>
            <threshold>-1.1629729851847515e-04</threshold>
            <left_val>-0.0980375930666924</left_val>
            <right_val>-0.9072601795196533</right_val></_></_>
        <_>
          <!-- tree 9 -->
          <_>
            <!-- root node -->
            <feature>
              <rects>
                <_>
                  10 8 8 6 -1.</_>
                <_>
                  10 8 4 6 2.</_></rects>
              <tilted>0</tilted></feature>
            <threshold>1.5200590132735670e-04</threshold>
            <left_node>1</left_node>
            <right_val>0.0395802594721317</right_val></_>
          <_>
            <!-- node 1 -->
            <feature>
              <rects>
                <_>
                  6 4 12 3 -1.</_>
                <_>
                  9 4 6 3 2.</_></rects>
              <tilted>0</tilted></feature>
            <threshold>0.0273286793380976</threshold>
            <left_val>-0.3282861113548279</left_val>
            <right_val>0.3028304874897003</right_val></_></_>
        <_>
          <!-- tree 10 -->
          <_>
            <!-- root node -->
            <feature>
              <rects>
                <_>
                  0 8 8 6 -1.</_>
                <_>
                  4 8 4 6 2.</_></rects>
              <tilted>0</tilted></feature>
            <threshold>4.1865831008180976e-04</threshold>
            <left_node>1</left_node>
            <right_val>0.0737132802605629</right_val></_>
          <_>
            <!-- node 1 -->
            <feature>
              <rects>
                <_>
                  0 4 12 3 -1.</_>
                <_>
                  3 4 6 3 2.</_></rects>
              <tilted>0</tilted></feature>
            <threshold>0.0522849000990391</threshold>
            <left_val>-0.4985255897045135</left_val>
            <right_val>0.8498330116271973</right_val></_></_>
        <_>
          <!-- tree 11 -->
          <_>
            <!-- root node -->
            <feature>
              <rects>
                <_>
                  12 1 6 9 -1.</_>
                <_>
                  14 4 2 3 9.</_></rects>
              <tilted>0</tilted></feature>
            <threshold>0.0461293794214725</threshold>
            <left_val>-0.3484156131744385</left_val>
            <right_node>1</right_node></_>
          <_>
            <!-- node 1 -->
            <feature>
              <rects>
                <_>
                  17 4 1 4 -1.</_>
                <_>
                  17 4 1 2 2.</_></rects>
              <tilted>1</tilted></feature>
            <threshold>-3.9268709952011704e-04</threshold>
            <left_val>0.0777578875422478</left_val>
            <right_val>-0.3868036866188049</right_val></_></_>
        <_>
          <!-- tree 12 -->
          <_>
            <!-- root node -->
            <feature>
              <rects>
                <_>
                  0 1 6 9 -1.</_>
                <_>
                  2 4 2 3 9.</_></rects>
              <tilted>0</tilted></feature>
            <threshold>-3.7592380977002904e-05</threshold>
            <left_val>0.4676190912723541</left_val>
            <right_node>1</right_node></_>
          <_>
            <!-- node 1 -->
            <feature>
              <rects>
                <_>
                  2 3 2 2 -1.</_>
                <_>
                  2 4 2 1 2.</_></rects>
              <tilted>0</tilted></feature>
            <threshold>7.2884133260231465e-05</threshold>
            <left_val>-0.7560337185859680</left_val>
            <right_val>0.2219102978706360</right_val></_></_>
        <_>
          <!-- tree 13 -->
          <_>
            <!-- root node -->
            <feature>
              <rects>
                <_>
                  8 16 2 2 -1.</_>
                <_>
                  8 17 2 1 2.</_></rects>
              <tilted>0</tilted></feature>
            <threshold>-5.4012460168451071e-05</threshold>
            <left_val>0.2012919038534164</left_val>
            <right_node>1</right_node></_>
          <_>
            <!-- node 1 -->
            <feature>
              <rects>
                <_>
                  8 16 2 2 -1.</_>
                <_>
                  8 17 2 1 2.</_></rects>
              <tilted>0</tilted></feature>
            <threshold>-5.4012460168451071e-05</threshold>
            <left_val>0.2012919038534164</left_val>
            <right_val>-0.5168871879577637</right_val></_></_>
        <_>
          <!-- tree 14 -->
          <_>
            <!-- root node -->
            <feature>
              <rects>
                <_>
                  2 18 8 4 -1.</_>
                <_>
                  2 18 4 2 2.</_>
                <_>
                  6 20 4 2 2.</_></rects>
              <tilted>0</tilted></feature>
            <threshold>-8.1167705357074738e-03</threshold>
            <left_val>0.4621942043304443</left_val>
            <right_node>1</right_node></_>
          <_>
            <!-- node 1 -->
            <feature>
              <rects>
                <_>
                  1 19 3 3 -1.</_>
                <_>
                  2 20 1 1 9.</_></rects>
              <tilted>0</tilted></feature>
            <threshold>-6.4391398336738348e-04</threshold>
            <left_val>0.0967619866132736</left_val>
            <right_val>-0.5672656893730164</right_val></_></_>
        <_>
          <!-- tree 15 -->
          <_>
            <!-- root node -->
            <feature>
              <rects>
                <_>
                  16 15 2 3 -1.</_>
                <_>
                  16 15 1 3 2.</_></rects>
              <tilted>1</tilted></feature>
            <threshold>1.8377680680714548e-04</threshold>
            <left_val>-0.1580688059329987</left_val>
            <right_node>1</right_node></_>
          <_>
            <!-- node 1 -->
            <feature>
              <rects>
                <_>
                  1 2 16 4 -1.</_>
                <_>
                  1 4 16 2 2.</_></rects>
              <tilted>0</tilted></feature>
            <threshold>5.2945218048989773e-03</threshold>
            <left_val>-0.2545318901538849</left_val>
            <right_val>0.2306510955095291</right_val></_></_>
        <_>
          <!-- tree 16 -->
          <_>
            <!-- root node -->
            <feature>
              <rects>
                <_>
                  2 15 3 2 -1.</_>
                <_>
                  2 15 3 1 2.</_></rects>
              <tilted>1</tilted></feature>
            <threshold>-0.0139804203063250</threshold>
            <left_val>0.7291325926780701</left_val>
            <right_node>1</right_node></_>
          <_>
            <!-- node 1 -->
            <feature>
              <rects>
                <_>
                  9 13 1 2 -1.</_>
                <_>
                  9 13 1 1 2.</_></rects>
              <tilted>1</tilted></feature>
            <threshold>2.4499689970980398e-05</threshold>
            <left_val>-0.4542194008827209</left_val>
            <right_val>0.1676460951566696</right_val></_></_>
        <_>
          <!-- tree 17 -->
          <_>
            <!-- root node -->
            <feature>
              <rects>
                <_>
                  7 8 4 2 -1.</_>
                <_>
                  8 8 2 2 2.</_></rects>
              <tilted>0</tilted></feature>
            <threshold>-1.9152839668095112e-03</threshold>
            <left_val>0.4119422137737274</left_val>
            <right_node>1</right_node></_>
          <_>
            <!-- node 1 -->
            <feature>
              <rects>
                <_>
                  5 7 8 4 -1.</_>
                <_>
                  7 7 4 4 2.</_></rects>
              <tilted>0</tilted></feature>
            <threshold>-0.0109995696693659</threshold>
            <left_val>0.4418472945690155</left_val>
            <right_val>-0.2035159021615982</right_val></_></_>
        <_>
          <!-- tree 18 -->
          <_>
            <!-- root node -->
            <feature>
              <rects>
                <_>
                  9 6 5 4 -1.</_>
                <_>
                  8 7 5 2 2.</_></rects>
              <tilted>1</tilted></feature>
            <threshold>0.0176249295473099</threshold>
            <left_node>1</left_node>
            <right_val>0.4784776866436005</right_val></_>
          <_>
            <!-- node 1 -->
            <feature>
              <rects>
                <_>
                  0 1 6 12 -1.</_>
                <_>
                  0 1 3 6 2.</_>
                <_>
                  3 7 3 6 2.</_></rects>
              <tilted>0</tilted></feature>
            <threshold>0.0661147534847260</threshold>
            <left_val>-0.3283556103706360</left_val>
            <right_val>0.4042832851409912</right_val></_></_>
        <_>
          <!-- tree 19 -->
          <_>
            <!-- root node -->
            <feature>
              <rects>
                <_>
                  10 15 1 2 -1.</_>
                <_>
                  10 16 1 1 2.</_></rects>
              <tilted>0</tilted></feature>
            <threshold>-4.8554360546404496e-05</threshold>
            <left_val>0.1104310974478722</left_val>
            <right_node>1</right_node></_>
          <_>
            <!-- node 1 -->
            <feature>
              <rects>
                <_>
                  10 15 1 2 -1.</_>
                <_>
                  10 16 1 1 2.</_></rects>
              <tilted>0</tilted></feature>
            <threshold>-4.8554360546404496e-05</threshold>
            <left_val>0.1104310974478722</left_val>
            <right_val>-0.4125564098358154</right_val></_></_>
        <_>
          <!-- tree 20 -->
          <_>
            <!-- root node -->
            <feature>
              <rects>
                <_>
                  1 4 12 7 -1.</_>
                <_>
                  7 4 6 7 2.</_></rects>
              <tilted>0</tilted></feature>
            <threshold>0.0342753417789936</threshold>
            <left_node>1</left_node>
            <right_val>0.2524895966053009</right_val></_>
          <_>
            <!-- node 1 -->
            <feature>
              <rects>
                <_>
                  2 3 4 2 -1.</_>
                <_>
                  2 3 2 2 2.</_></rects>
              <tilted>1</tilted></feature>
            <threshold>-0.0236050300300121</threshold>
            <left_val>0.6422321796417236</left_val>
            <right_val>-0.4370183944702148</right_val></_></_>
        <_>
          <!-- tree 21 -->
          <_>
            <!-- root node -->
            <feature>
              <rects>
                <_>
                  10 15 1 2 -1.</_>
                <_>
                  10 16 1 1 2.</_></rects>
              <tilted>0</tilted></feature>
            <threshold>4.9279780796496198e-05</threshold>
            <left_val>-0.3307113051414490</left_val>
            <right_node>1</right_node></_>
          <_>
            <!-- node 1 -->
            <feature>
              <rects>
                <_>
                  10 15 1 2 -1.</_>
                <_>
                  10 16 1 1 2.</_></rects>
              <tilted>0</tilted></feature>
            <threshold>4.9279780796496198e-05</threshold>
            <left_val>-0.3307113051414490</left_val>
            <right_val>0.3495126068592072</right_val></_></_>
        <_>
          <!-- tree 22 -->
          <_>
            <!-- root node -->
            <feature>
              <rects>
                <_>
                  3 13 12 8 -1.</_>
                <_>
                  3 17 12 4 2.</_></rects>
              <tilted>0</tilted></feature>
            <threshold>-2.6701800525188446e-03</threshold>
            <left_val>0.1818733960390091</left_val>
            <right_node>1</right_node></_>
          <_>
            <!-- node 1 -->
            <feature>
              <rects>
                <_>
                  4 12 10 1 -1.</_>
                <_>
                  9 12 5 1 2.</_></rects>
              <tilted>0</tilted></feature>
            <threshold>5.6753889657557011e-03</threshold>
            <left_val>-0.9067720174789429</left_val>
            <right_val>0.2826273143291473</right_val></_></_>
        <_>
          <!-- tree 23 -->
          <_>
            <!-- root node -->
            <feature>
              <rects>
                <_>
                  6 11 12 1 -1.</_>
                <_>
                  6 11 6 1 2.</_></rects>
              <tilted>0</tilted></feature>
            <threshold>2.9606200769194402e-05</threshold>
            <left_node>1</left_node>
            <right_val>0.0397962592542171</right_val></_>
          <_>
            <!-- node 1 -->
            <feature>
              <rects>
                <_>
                  11 4 1 8 -1.</_>
                <_>
                  11 4 1 4 2.</_></rects>
              <tilted>1</tilted></feature>
            <threshold>9.6575211500748992e-05</threshold>
            <left_val>-0.4419539868831635</left_val>
            <right_val>8.0500673502683640e-03</right_val></_></_>
        <_>
          <!-- tree 24 -->
          <_>
            <!-- root node -->
            <feature>
              <rects>
                <_>
                  0 11 12 1 -1.</_>
                <_>
                  6 11 6 1 2.</_></rects>
              <tilted>0</tilted></feature>
            <threshold>2.6749759854283184e-05</threshold>
            <left_node>1</left_node>
            <right_val>0.0515901707112789</right_val></_>
          <_>
            <!-- node 1 -->
            <feature>
              <rects>
                <_>
                  7 4 8 1 -1.</_>
                <_>
                  7 4 4 1 2.</_></rects>
              <tilted>1</tilted></feature>
            <threshold>5.2803661674261093e-03</threshold>
            <left_val>-0.7492672204971313</left_val>
            <right_val>0.4160974025726318</right_val></_></_>
        <_>
          <!-- tree 25 -->
          <_>
            <!-- root node -->
            <feature>
              <rects>
                <_>
                  5 6 10 8 -1.</_>
                <_>
                  5 10 10 4 2.</_></rects>
              <tilted>0</tilted></feature>
            <threshold>9.1522084549069405e-03</threshold>
            <left_node>1</left_node>
            <right_val>0.0856930464506149</right_val></_>
          <_>
            <!-- node 1 -->
            <feature>
              <rects>
                <_>
                  4 5 10 6 -1.</_>
                <_>
                  9 5 5 3 2.</_>
                <_>
                  4 8 5 3 2.</_></rects>
              <tilted>0</tilted></feature>
            <threshold>-0.0259054806083441</threshold>
            <left_val>0.2905730903148651</left_val>
            <right_val>-0.4178380072116852</right_val></_></_>
        <_>
          <!-- tree 26 -->
          <_>
            <!-- root node -->
            <feature>
              <rects>
                <_>
                  6 13 1 8 -1.</_>
                <_>
                  6 17 1 4 2.</_></rects>
              <tilted>0</tilted></feature>
            <threshold>-5.0354610721115023e-05</threshold>
            <left_val>0.0878007262945175</left_val>
            <right_node>1</right_node></_>
          <_>
            <!-- node 1 -->
            <feature>
              <rects>
                <_>
                  2 9 5 12 -1.</_>
                <_>
                  2 13 5 4 3.</_></rects>
              <tilted>0</tilted></feature>
            <threshold>-9.0075678599532694e-05</threshold>
            <left_val>4.3830680660903454e-03</left_val>
            <right_val>-0.9307280182838440</right_val></_></_>
        <_>
          <!-- tree 27 -->
          <_>
            <!-- root node -->
            <feature>
              <rects>
                <_>
                  10 1 8 3 -1.</_>
                <_>
                  10 1 4 3 2.</_></rects>
              <tilted>0</tilted></feature>
            <threshold>-0.0289041493088007</threshold>
            <left_val>0.4151490926742554</left_val>
            <right_node>1</right_node></_>
          <_>
            <!-- node 1 -->
            <feature>
              <rects>
                <_>
                  0 0 18 8 -1.</_>
                <_>
                  0 4 18 4 2.</_></rects>
              <tilted>0</tilted></feature>
            <threshold>0.0174587201327085</threshold>
            <left_val>-0.2857412993907928</left_val>
            <right_val>0.1044358015060425</right_val></_></_>
        <_>
          <!-- tree 28 -->
          <_>
            <!-- root node -->
            <feature>
              <rects>
                <_>
                  0 1 9 9 -1.</_>
                <_>
                  3 4 3 3 9.</_></rects>
              <tilted>0</tilted></feature>
            <threshold>-1.3210360193625093e-03</threshold>
            <left_val>0.1070875972509384</left_val>
            <right_node>1</right_node></_>
          <_>
            <!-- node 1 -->
            <feature>
              <rects>
                <_>
                  2 0 6 12 -1.</_>
                <_>
                  2 0 3 6 2.</_>
                <_>
                  5 6 3 6 2.</_></rects>
              <tilted>0</tilted></feature>
            <threshold>-0.0199094396084547</threshold>
            <left_val>0.3219259977340698</left_val>
            <right_val>-0.6990957260131836</right_val></_></_>
        <_>
          <!-- tree 29 -->
          <_>
            <!-- root node -->
            <feature>
              <rects>
                <_>
                  13 17 4 4 -1.</_>
                <_>
                  15 17 2 2 2.</_>
                <_>
                  13 19 2 2 2.</_></rects>
              <tilted>0</tilted></feature>
            <threshold>2.2867049556225538e-03</threshold>
            <left_val>-0.1705214977264404</left_val>
            <right_node>1</right_node></_>
          <_>
            <!-- node 1 -->
            <feature>
              <rects>
                <_>
                  7 1 11 21 -1.</_>
                <_>
                  7 8 11 7 3.</_></rects>
              <tilted>0</tilted></feature>
            <threshold>-0.0217070095241070</threshold>
            <left_val>0.2947744131088257</left_val>
            <right_val>-0.1187010034918785</right_val></_></_>
        <_>
          <!-- tree 30 -->
          <_>
            <!-- root node -->
            <feature>
              <rects>
                <_>
                  3 4 9 8 -1.</_>
                <_>
                  3 6 9 4 2.</_></rects>
              <tilted>0</tilted></feature>
            <threshold>-9.7755424212664366e-04</threshold>
            <left_val>0.3283183872699738</left_val>
            <right_node>1</right_node></_>
          <_>
            <!-- node 1 -->
            <feature>
              <rects>
                <_>
                  3 0 9 6 -1.</_>
                <_>
                  6 2 3 2 9.</_></rects>
              <tilted>0</tilted></feature>
            <threshold>-0.0127291101962328</threshold>
            <left_val>0.2651731967926025</left_val>
            <right_val>-0.6069492101669312</right_val></_></_></trees>
      <stage_threshold>-2.2317209243774414</stage_threshold>
      <parent>3</parent>
      <next>-1</next></_>
    <_>
      <!-- stage 5 -->
      <trees>
        <_>
          <!-- tree 0 -->
          <_>
            <!-- root node -->
            <feature>
              <rects>
                <_>
                  2 0 4 2 -1.</_>
                <_>
                  2 0 2 2 2.</_></rects>
              <tilted>1</tilted></feature>
            <threshold>0.0190272703766823</threshold>
            <left_val>-0.4180198013782501</left_val>
            <right_node>1</right_node></_>
          <_>
            <!-- node 1 -->
            <feature>
              <rects>
                <_>
                  2 0 14 2 -1.</_>
                <_>
                  2 1 14 1 2.</_></rects>
              <tilted>0</tilted></feature>
            <threshold>-0.0105755599215627</threshold>
            <left_val>0.7884284257888794</left_val>
            <right_val>7.5502851977944374e-03</right_val></_></_>
        <_>
          <!-- tree 1 -->
          <_>
            <!-- root node -->
            <feature>
              <rects>
                <_>
                  10 12 8 10 -1.</_>
                <_>
                  14 12 4 5 2.</_>
                <_>
                  10 17 4 5 2.</_></rects>
              <tilted>0</tilted></feature>
            <threshold>-0.0231044702231884</threshold>
            <left_node>1</left_node>
            <right_val>-0.1420685946941376</right_val></_>
          <_>
            <!-- node 1 -->
            <feature>
              <rects>
                <_>
                  8 0 8 4 -1.</_>
                <_>
                  12 0 4 2 2.</_>
                <_>
                  8 2 4 2 2.</_></rects>
              <tilted>0</tilted></feature>
            <threshold>0.0210460498929024</threshold>
            <left_val>-0.1547736972570419</left_val>
            <right_val>0.5568066239356995</right_val></_></_>
        <_>
          <!-- tree 2 -->
          <_>
            <!-- root node -->
            <feature>
              <rects>
                <_>
                  0 12 8 10 -1.</_>
                <_>
                  0 12 4 5 2.</_>
                <_>
                  4 17 4 5 2.</_></rects>
              <tilted>0</tilted></feature>
            <threshold>-0.0486203990876675</threshold>
            <left_val>0.3797408044338226</left_val>
            <right_node>1</right_node></_>
          <_>
            <!-- node 1 -->
            <feature>
              <rects>
                <_>
                  0 7 12 10 -1.</_>
                <_>
                  3 7 6 10 2.</_></rects>
              <tilted>0</tilted></feature>
            <threshold>0.0487520098686218</threshold>
            <left_val>-0.3812237083911896</left_val>
            <right_val>0.1977940052747726</right_val></_></_>
        <_>
          <!-- tree 3 -->
          <_>
            <!-- root node -->
            <feature>
              <rects>
                <_>
                  11 2 2 2 -1.</_>
                <_>
                  11 2 2 1 2.</_></rects>
              <tilted>1</tilted></feature>
            <threshold>2.5024830829352140e-03</threshold>
            <left_node>1</left_node>
            <right_val>-0.2545959949493408</right_val></_>
          <_>
            <!-- node 1 -->
            <feature>
              <rects>
                <_>
                  7 7 4 9 -1.</_>
                <_>
                  7 10 4 3 3.</_></rects>
              <tilted>0</tilted></feature>
            <threshold>0.0203842893242836</threshold>
            <left_val>-0.2732393145561218</left_val>
            <right_val>0.2208826988935471</right_val></_></_>
        <_>
          <!-- tree 4 -->
          <_>
            <!-- root node -->
            <feature>
              <rects>
                <_>
                  7 2 2 2 -1.</_>
                <_>
                  7 2 1 2 2.</_></rects>
              <tilted>1</tilted></feature>
            <threshold>2.9011920560151339e-03</threshold>
            <left_node>1</left_node>
            <right_val>-0.6012346744537354</right_val></_>
          <_>
            <!-- node 1 -->
            <feature>
              <rects>
                <_>
                  4 5 1 2 -1.</_>
                <_>
                  4 5 1 1 2.</_></rects>
              <tilted>1</tilted></feature>
            <threshold>-1.5326580032706261e-03</threshold>
            <left_val>-0.3200910091400146</left_val>
            <right_val>0.2988227903842926</right_val></_></_>
        <_>
          <!-- tree 5 -->
          <_>
            <!-- root node -->
            <feature>
              <rects>
                <_>
                  16 10 2 6 -1.</_>
                <_>
                  17 10 1 3 2.</_>
                <_>
                  16 13 1 3 2.</_></rects>
              <tilted>0</tilted></feature>
            <threshold>-1.2091690441593528e-03</threshold>
            <left_val>0.1623106002807617</left_val>
            <right_node>1</right_node></_>
          <_>
            <!-- node 1 -->
            <feature>
              <rects>
                <_>
                  11 14 2 6 -1.</_>
                <_>
                  11 14 2 3 2.</_></rects>
              <tilted>1</tilted></feature>
            <threshold>-0.0293908007442951</threshold>
            <left_val>-0.6236354708671570</left_val>
            <right_val>6.3597788102924824e-03</right_val></_></_>
        <_>
          <!-- tree 6 -->
          <_>
            <!-- root node -->
            <feature>
              <rects>
                <_>
                  0 7 2 12 -1.</_>
                <_>
                  0 7 1 6 2.</_>
                <_>
                  1 13 1 6 2.</_></rects>
              <tilted>0</tilted></feature>
            <threshold>-0.0128566399216652</threshold>
            <left_val>0.4775063097476959</left_val>
            <right_node>1</right_node></_>
          <_>
            <!-- node 1 -->
            <feature>
              <rects>
                <_>
                  4 0 4 2 -1.</_>
                <_>
                  4 0 2 1 2.</_>
                <_>
                  6 1 2 1 2.</_></rects>
              <tilted>0</tilted></feature>
            <threshold>5.8728861622512341e-03</threshold>
            <left_val>-0.2947852015495300</left_val>
            <right_val>0.3330726921558380</right_val></_></_>
        <_>
          <!-- tree 7 -->
          <_>
            <!-- root node -->
            <feature>
              <rects>
                <_>
                  13 13 2 6 -1.</_>
                <_>
                  13 13 2 3 2.</_></rects>
              <tilted>1</tilted></feature>
            <threshold>0.0336707010865211</threshold>
            <left_node>1</left_node>
            <right_val>-0.3013803064823151</right_val></_>
          <_>
            <!-- node 1 -->
            <feature>
              <rects>
                <_>
                  4 7 10 12 -1.</_>
                <_>
                  4 10 10 6 2.</_></rects>
              <tilted>0</tilted></feature>
            <threshold>0.0537473298609257</threshold>
            <left_val>-0.2386950999498367</left_val>
            <right_val>0.1793089956045151</right_val></_></_>
        <_>
          <!-- tree 8 -->
          <_>
            <!-- root node -->
            <feature>
              <rects>
                <_>
                  5 13 6 2 -1.</_>
                <_>
                  5 13 3 2 2.</_></rects>
              <tilted>1</tilted></feature>
            <threshold>0.0323082096874714</threshold>
            <left_node>1</left_node>
            <right_val>-0.7118471860885620</right_val></_>
          <_>
            <!-- node 1 -->
            <feature>
              <rects>
                <_>
                  0 11 7 6 -1.</_>
                <_>
                  0 14 7 3 2.</_></rects>
              <tilted>0</tilted></feature>
            <threshold>-0.0509196482598782</threshold>
            <left_val>-0.7080886960029602</left_val>
            <right_val>0.1864503026008606</right_val></_></_>
        <_>
          <!-- tree 9 -->
          <_>
            <!-- root node -->
            <feature>
              <rects>
                <_>
                  6 0 12 2 -1.</_>
                <_>
                  12 0 6 1 2.</_>
                <_>
                  6 1 6 1 2.</_></rects>
              <tilted>0</tilted></feature>
            <threshold>-0.0149263096973300</threshold>
            <left_val>0.4345954954624176</left_val>
            <right_node>1</right_node></_>
          <_>
            <!-- node 1 -->
            <feature>
              <rects>
                <_>
                  3 1 12 2 -1.</_>
                <_>
                  3 2 12 1 2.</_></rects>
              <tilted>0</tilted></feature>
            <threshold>0.0141382701694965</threshold>
            <left_val>-0.1030184030532837</left_val>
            <right_val>0.3761701881885529</right_val></_></_>
        <_>
          <!-- tree 10 -->
          <_>
            <!-- root node -->
            <feature>
              <rects>
                <_>
                  5 6 8 6 -1.</_>
                <_>
                  5 6 4 3 2.</_>
                <_>
                  9 9 4 3 2.</_></rects>
              <tilted>0</tilted></feature>
            <threshold>0.0335036702454090</threshold>
            <left_node>1</left_node>
            <right_val>0.3755671083927155</right_val></_>
          <_>
            <!-- node 1 -->
            <feature>
              <rects>
                <_>
                  9 1 6 7 -1.</_>
                <_>
                  9 1 3 7 2.</_></rects>
              <tilted>1</tilted></feature>
            <threshold>-0.0992783010005951</threshold>
            <left_val>0.1665094047784805</left_val>
            <right_val>-0.3840416967868805</right_val></_></_>
        <_>
          <!-- tree 11 -->
          <_>
            <!-- root node -->
            <feature>
              <rects>
                <_>
                  9 15 2 4 -1.</_>
                <_>
                  9 15 2 2 2.</_></rects>
              <tilted>1</tilted></feature>
            <threshold>0.0432139188051224</threshold>
            <left_node>1</left_node>
            <right_val>-0.7493938207626343</right_val></_>
          <_>
            <!-- node 1 -->
            <feature>
              <rects>
                <_>
                  12 2 3 1 -1.</_>
                <_>
                  13 3 1 1 3.</_></rects>
              <tilted>1</tilted></feature>
            <threshold>9.0838260948657990e-03</threshold>
            <left_val>0.0246810298413038</left_val>
            <right_val>-0.4717758893966675</right_val></_></_>
        <_>
          <!-- tree 12 -->
          <_>
            <!-- root node -->
            <feature>
              <rects>
                <_>
                  3 16 3 3 -1.</_>
                <_>
                  2 17 3 1 3.</_></rects>
              <tilted>1</tilted></feature>
            <threshold>0.0186766292899847</threshold>
            <left_node>1</left_node>
            <right_val>0.5489804744720459</right_val></_>
          <_>
            <!-- node 1 -->
            <feature>
              <rects>
                <_>
                  3 16 3 3 -1.</_>
                <_>
                  2 17 3 1 3.</_></rects>
              <tilted>1</tilted></feature>
            <threshold>-0.0115627497434616</threshold>
            <left_val>0.3138971924781799</left_val>
            <right_val>-0.2285280972719193</right_val></_></_>
        <_>
          <!-- tree 13 -->
          <_>
            <!-- root node -->
            <feature>
              <rects>
                <_>
                  5 8 8 3 -1.</_>
                <_>
                  7 8 4 3 2.</_></rects>
              <tilted>0</tilted></feature>
            <threshold>-0.0167756993323565</threshold>
            <left_val>0.4671727120876312</left_val>
            <right_node>1</right_node></_>
          <_>
            <!-- node 1 -->
            <feature>
              <rects>
                <_>
                  8 10 2 4 -1.</_>
                <_>
                  8 12 2 2 2.</_></rects>
              <tilted>0</tilted></feature>
            <threshold>-2.8724060393869877e-03</threshold>
            <left_val>0.2757934033870697</left_val>
            <right_val>-0.1319756060838699</right_val></_></_>
        <_>
          <!-- tree 14 -->
          <_>
            <!-- root node -->
            <feature>
              <rects>
                <_>
                  7 7 4 3 -1.</_>
                <_>
                  9 7 2 3 2.</_></rects>
              <tilted>0</tilted></feature>
            <threshold>0.0193716008216143</threshold>
            <left_node>1</left_node>
            <right_val>0.4794847071170807</right_val></_>
          <_>
            <!-- node 1 -->
            <feature>
              <rects>
                <_>
                  5 5 8 6 -1.</_>
                <_>
                  5 5 4 3 2.</_>
                <_>
                  9 8 4 3 2.</_></rects>
              <tilted>0</tilted></feature>
            <threshold>-0.0462108291685581</threshold>
            <left_val>0.4963026046752930</left_val>
            <right_val>-0.2592872977256775</right_val></_></_>
        <_>
          <!-- tree 15 -->
          <_>
            <!-- root node -->
            <feature>
              <rects>
                <_>
                  15 6 2 2 -1.</_>
                <_>
                  15 6 1 2 2.</_></rects>
              <tilted>1</tilted></feature>
            <threshold>2.0868720021098852e-03</threshold>
            <left_val>-0.0488469488918781</left_val>
            <right_node>1</right_node></_>
          <_>
            <!-- node 1 -->
            <feature>
              <rects>
                <_>
                  9 2 2 1 -1.</_>
                <_>
                  9 2 1 1 2.</_></rects>
              <tilted>0</tilted></feature>
            <threshold>1.3370550004765391e-03</threshold>
            <left_val>0.0792791098356247</left_val>
            <right_val>-0.4689694046974182</right_val></_></_>
        <_>
          <!-- tree 16 -->
          <_>
            <!-- root node -->
            <feature>
              <rects>
                <_>
                  3 6 2 2 -1.</_>
                <_>
                  3 6 2 1 2.</_></rects>
              <tilted>1</tilted></feature>
            <threshold>-2.1548799704760313e-03</threshold>
            <left_val>-0.4167783856391907</left_val>
            <right_node>1</right_node></_>
          <_>
            <!-- node 1 -->
            <feature>
              <rects>
                <_>
                  5 4 1 2 -1.</_>
                <_>
                  5 4 1 1 2.</_></rects>
              <tilted>1</tilted></feature>
            <threshold>-2.0035689231008291e-03</threshold>
            <left_val>-0.4101141095161438</left_val>
            <right_val>0.2757954895496368</right_val></_></_>
        <_>
          <!-- tree 17 -->
          <_>
            <!-- root node -->
            <feature>
              <rects>
                <_>
                  12 0 6 4 -1.</_>
                <_>
                  11 1 6 2 2.</_></rects>
              <tilted>1</tilted></feature>
            <threshold>0.0288141295313835</threshold>
            <left_val>-0.0728909894824028</left_val>
            <right_node>1</right_node></_>
          <_>
            <!-- node 1 -->
            <feature>
              <rects>
                <_>
                  14 0 4 3 -1.</_>
                <_>
                  13 1 4 1 3.</_></rects>
              <tilted>1</tilted></feature>
            <threshold>0.0198133103549480</threshold>
            <left_val>-0.1126922965049744</left_val>
            <right_val>0.5979375243186951</right_val></_></_>
        <_>
          <!-- tree 18 -->
          <_>
            <!-- root node -->
            <feature>
              <rects>
                <_>
                  2 7 14 12 -1.</_>
                <_>
                  2 7 7 6 2.</_>
                <_>
                  9 13 7 6 2.</_></rects>
              <tilted>0</tilted></feature>
            <threshold>-0.1182089000940323</threshold>
            <left_val>-0.6124166250228882</left_val>
            <right_node>1</right_node></_>
          <_>
            <!-- node 1 -->
            <feature>
              <rects>
                <_>
                  5 1 2 5 -1.</_>
                <_>
                  5 1 1 5 2.</_></rects>
              <tilted>1</tilted></feature>
            <threshold>0.0305249299854040</threshold>
            <left_val>0.0529321804642677</left_val>
            <right_val>0.7210422754287720</right_val></_></_>
        <_>
          <!-- tree 19 -->
          <_>
            <!-- root node -->
            <feature>
              <rects>
                <_>
                  17 5 1 2 -1.</_>
                <_>
                  17 6 1 1 2.</_></rects>
              <tilted>0</tilted></feature>
            <threshold>-1.4985359739512205e-03</threshold>
            <left_val>-0.2008866071701050</left_val>
            <right_node>1</right_node></_>
          <_>
            <!-- node 1 -->
            <feature>
              <rects>
                <_>
                  16 2 2 6 -1.</_>
                <_>
                  17 2 1 3 2.</_>
                <_>
                  16 5 1 3 2.</_></rects>
              <tilted>0</tilted></feature>
            <threshold>6.0270400717854500e-03</threshold>
            <left_val>-0.1524350047111511</left_val>
            <right_val>0.4698039889335632</right_val></_></_>
        <_>
          <!-- tree 20 -->
          <_>
            <!-- root node -->
            <feature>
              <rects>
                <_>
                  4 0 3 4 -1.</_>
                <_>
                  5 1 1 4 3.</_></rects>
              <tilted>1</tilted></feature>
            <threshold>-0.0270131193101406</threshold>
            <left_val>0.5327829122543335</left_val>
            <right_node>1</right_node></_>
          <_>
            <!-- node 1 -->
            <feature>
              <rects>
                <_>
                  0 5 1 2 -1.</_>
                <_>
                  0 6 1 1 2.</_></rects>
              <tilted>0</tilted></feature>
            <threshold>-9.6028379630297422e-04</threshold>
            <left_val>-0.5396239161491394</left_val>
            <right_val>0.0470009595155716</right_val></_></_>
        <_>
          <!-- tree 21 -->
          <_>
            <!-- root node -->
            <feature>
              <rects>
                <_>
                  11 7 4 9 -1.</_>
                <_>
                  8 10 4 3 3.</_></rects>
              <tilted>1</tilted></feature>
            <threshold>0.0443449206650257</threshold>
            <left_node>1</left_node>
            <right_val>0.1118182018399239</right_val></_>
          <_>
            <!-- node 1 -->
            <feature>
              <rects>
                <_>
                  7 4 8 6 -1.</_>
                <_>
                  11 4 4 3 2.</_>
                <_>
                  7 7 4 3 2.</_></rects>
              <tilted>0</tilted></feature>
            <threshold>0.0759073495864868</threshold>
            <left_val>-0.0186906699091196</left_val>
            <right_val>0.7738177776336670</right_val></_></_>
        <_>
          <!-- tree 22 -->
          <_>
            <!-- root node -->
            <feature>
              <rects>
                <_>
                  9 5 9 6 -1.</_>
                <_>
                  12 8 3 6 3.</_></rects>
              <tilted>1</tilted></feature>
            <threshold>0.0608310587704182</threshold>
            <left_node>1</left_node>
            <right_val>0.1305669993162155</right_val></_>
          <_>
            <!-- node 1 -->
            <feature>
              <rects>
                <_>
                  6 1 6 9 -1.</_>
                <_>
                  6 4 6 3 3.</_></rects>
              <tilted>0</tilted></feature>
            <threshold>0.0726513564586639</threshold>
            <left_val>-0.4425953030586243</left_val>
            <right_val>0.3086948990821838</right_val></_></_>
        <_>
          <!-- tree 23 -->
          <_>
            <!-- root node -->
            <feature>
              <rects>
                <_>
                  11 4 4 10 -1.</_>
                <_>
                  12 5 2 10 2.</_></rects>
              <tilted>1</tilted></feature>
            <threshold>0.0220733601599932</threshold>
            <left_node>1</left_node>
            <right_val>0.1211429014801979</right_val></_>
          <_>
            <!-- node 1 -->
            <feature>
              <rects>
                <_>
                  9 5 6 5 -1.</_>
                <_>
                  11 7 2 5 3.</_></rects>
              <tilted>1</tilted></feature>
            <threshold>0.0489152111113071</threshold>
            <left_val>-0.0852803811430931</left_val>
            <right_val>0.1240691989660263</right_val></_></_>
        <_>
          <!-- tree 24 -->
          <_>
            <!-- root node -->
            <feature>
              <rects>
                <_>
                  7 4 10 4 -1.</_>
                <_>
                  6 5 10 2 2.</_></rects>
              <tilted>1</tilted></feature>
            <threshold>0.0205508694052696</threshold>
            <left_node>1</left_node>
            <right_val>0.2903136909008026</right_val></_>
          <_>
            <!-- node 1 -->
            <feature>
              <rects>
                <_>
                  7 7 3 6 -1.</_>
                <_>
                  8 9 1 2 9.</_></rects>
              <tilted>0</tilted></feature>
            <threshold>-9.9990330636501312e-03</threshold>
            <left_val>0.1886353939771652</left_val>
            <right_val>-0.3494625985622406</right_val></_></_>
        <_>
          <!-- tree 25 -->
          <_>
            <!-- root node -->
            <feature>
              <rects>
                <_>
                  9 0 9 8 -1.</_>
                <_>
                  9 2 9 4 2.</_></rects>
              <tilted>0</tilted></feature>
            <threshold>-0.0203262697905302</threshold>
            <left_val>0.1928158998489380</left_val>
            <right_node>1</right_node></_>
          <_>
            <!-- node 1 -->
            <feature>
              <rects>
                <_>
                  2 6 14 14 -1.</_>
                <_>
                  2 13 14 7 2.</_></rects>
              <tilted>0</tilted></feature>
            <threshold>-2.3733079433441162e-04</threshold>
            <left_val>0.1027714014053345</left_val>
            <right_val>-0.2307492047548294</right_val></_></_>
        <_>
          <!-- tree 26 -->
          <_>
            <!-- root node -->
            <feature>
              <rects>
                <_>
                  2 7 12 8 -1.</_>
                <_>
                  8 7 6 8 2.</_></rects>
              <tilted>0</tilted></feature>
            <threshold>0.1413549035787582</threshold>
            <left_node>1</left_node>
            <right_val>0.2279939055442810</right_val></_>
          <_>
            <!-- node 1 -->
            <feature>
              <rects>
                <_>
                  5 0 6 5 -1.</_>
                <_>
                  7 2 2 5 3.</_></rects>
              <tilted>1</tilted></feature>
            <threshold>-0.1031740009784698</threshold>
            <left_val>0.4852708876132965</left_val>
            <right_val>-0.2829138040542603</right_val></_></_>
        <_>
          <!-- tree 27 -->
          <_>
            <!-- root node -->
            <feature>
              <rects>
                <_>
                  9 14 4 4 -1.</_>
                <_>
                  9 14 4 2 2.</_></rects>
              <tilted>1</tilted></feature>
            <threshold>0.0103683099150658</threshold>
            <left_node>1</left_node>
            <right_val>0.0646233782172203</right_val></_>
          <_>
            <!-- node 1 -->
            <feature>
              <rects>
                <_>
                  8 8 2 9 -1.</_>
                <_>
                  8 11 2 3 3.</_></rects>
              <tilted>0</tilted></feature>
            <threshold>-6.3903369009494781e-03</threshold>
            <left_val>0.2535594999790192</left_val>
            <right_val>-0.1074891984462738</right_val></_></_>
        <_>
          <!-- tree 28 -->
          <_>
            <!-- root node -->
            <feature>
              <rects>
                <_>
                  9 14 4 4 -1.</_>
                <_>
                  9 14 2 4 2.</_></rects>
              <tilted>1</tilted></feature>
            <threshold>5.4904571734368801e-03</threshold>
            <left_node>1</left_node>
            <right_val>0.1615476012229919</right_val></_>
          <_>
            <!-- node 1 -->
            <feature>
              <rects>
                <_>
                  0 15 2 4 -1.</_>
                <_>
                  0 15 1 2 2.</_>
                <_>
                  1 17 1 2 2.</_></rects>
              <tilted>0</tilted></feature>
            <threshold>7.6854750514030457e-03</threshold>
            <left_val>-0.3053131997585297</left_val>
            <right_val>0.7539016008377075</right_val></_></_>
        <_>
          <!-- tree 29 -->
          <_>
            <!-- root node -->
            <feature>
              <rects>
                <_>
                  12 20 2 2 -1.</_>
                <_>
                  13 20 1 1 2.</_>
                <_>
                  12 21 1 1 2.</_></rects>
              <tilted>0</tilted></feature>
            <threshold>-3.8992951158434153e-03</threshold>
            <left_val>0.5775381922721863</left_val>
            <right_node>1</right_node></_>
          <_>
            <!-- node 1 -->
            <feature>
              <rects>
                <_>
                  13 20 2 2 -1.</_>
                <_>
                  14 20 1 1 2.</_>
                <_>
                  13 21 1 1 2.</_></rects>
              <tilted>0</tilted></feature>
            <threshold>3.2537470106035471e-03</threshold>
            <left_val>-0.1328919976949692</left_val>
            <right_val>0.5457779765129089</right_val></_></_>
        <_>
          <!-- tree 30 -->
          <_>
            <!-- root node -->
            <feature>
              <rects>
                <_>
