<?xml version="1.0"?>
<opencv_storage>
<haarcascade_3 type_id="opencv-haar-classifier">
  <size>
    18 20</size>
  <stages>
    <_>
      <!-- stage 0 -->
      <trees>
        <_>
          <!-- tree 0 -->
          <_>
            <!-- root node -->
            <feature>
              <rects>
                <_>
                  3 2 12 5 -1.</_>
                <_>
                  7 2 4 5 3.</_></rects>
              <tilted>0</tilted></feature>
            <threshold>0.0444906204938889</threshold>
            <left_val>-0.8724176287651062</left_val>
            <right_node>1</right_node></_>
          <_>
            <!-- node 1 -->
            <feature>
              <rects>
                <_>
                  2 5 14 6 -1.</_>
                <_>
                  2 8 14 3 2.</_></rects>
              <tilted>0</tilted></feature>
            <threshold>0.0359897501766682</threshold>
            <left_val>-0.8517212271690369</left_val>
            <right_val>0.9280244112014771</right_val></_></_>
        <_>
          <!-- tree 1 -->
          <_>
            <!-- root node -->
            <feature>
              <rects>
                <_>
                  6 16 6 4 -1.</_>
                <_>
                  6 17 6 2 2.</_></rects>
              <tilted>0</tilted></feature>
            <threshold>-7.6656658202409744e-03</threshold>
            <left_node>1</left_node>
            <right_val>-0.7776203155517578</right_val></_>
          <_>
            <!-- node 1 -->
            <feature>
              <rects>
                <_>
                  10 0 8 4 -1.</_>
                <_>
                  12 2 4 4 2.</_></rects>
              <tilted>1</tilted></feature>
            <threshold>-5.4221861064434052e-03</threshold>
            <left_val>0.4256201982498169</left_val>
            <right_val>-0.7611528038978577</right_val></_></_>
        <_>
          <!-- tree 2 -->
          <_>
            <!-- root node -->
            <feature>
              <rects>
                <_>
                  8 0 4 8 -1.</_>
                <_>
                  6 2 4 4 2.</_></rects>
              <tilted>1</tilted></feature>
            <threshold>-0.0195473805069923</threshold>
            <left_node>1</left_node>
            <right_val>-0.8665627837181091</right_val></_>
          <_>
            <!-- node 1 -->
            <feature>
              <rects>
                <_>
                  1 13 16 2 -1.</_>
                <_>
                  5 13 8 2 2.</_></rects>
              <tilted>0</tilted></feature>
            <threshold>-5.1483470015227795e-03</threshold>
            <left_val>0.8822606205940247</left_val>
            <right_val>-0.4778327941894531</right_val></_></_></trees>
      <stage_threshold>-2.4794371128082275</stage_threshold>
      <parent>-1</parent>
      <next>-1</next></_>
    <_>
      <!-- stage 1 -->
      <trees>
        <_>
          <!-- tree 0 -->
          <_>
            <!-- root node -->
            <feature>
              <rects>
                <_>
                  1 6 16 8 -1.</_>
                <_>
                  1 8 16 4 2.</_></rects>
              <tilted>0</tilted></feature>
            <threshold>0.0316237397491932</threshold>
            <left_val>-0.8831679821014404</left_val>
            <right_node>1</right_node></_>
          <_>
            <!-- node 1 -->
            <feature>
              <rects>
                <_>
                  3 1 12 7 -1.</_>
                <_>
                  7 1 4 7 3.</_></rects>
              <tilted>0</tilted></feature>
            <threshold>0.0423172302544117</threshold>
            <left_val>-0.8179386258125305</left_val>
            <right_val>0.8472334742546082</right_val></_></_>
        <_>
          <!-- tree 1 -->
          <_>
            <!-- root node -->
            <feature>
              <rects>
                <_>
                  1 13 16 1 -1.</_>
                <_>
                  5 13 8 1 2.</_></rects>
              <tilted>0</tilted></feature>
            <threshold>-7.7903280034661293e-03</threshold>
            <left_node>1</left_node>
            <right_val>-0.8163825273513794</right_val></_>
          <_>
            <!-- node 1 -->
            <feature>
              <rects>
                <_>
                  2 16 15 4 -1.</_>
                <_>
                  2 17 15 2 2.</_></rects>
              <tilted>0</tilted></feature>
            <threshold>-8.3357356488704681e-03</threshold>
            <left_val>0.5073171257972717</left_val>
            <right_val>-0.7954118251800537</right_val></_></_>
        <_>
          <!-- tree 2 -->
          <_>
            <!-- root node -->
            <feature>
              <rects>
                <_>
                  3 13 12 6 -1.</_>
                <_>
                  6 13 6 6 2.</_></rects>
              <tilted>0</tilted></feature>
            <threshold>-0.0172196608036757</threshold>
            <left_node>1</left_node>
            <right_val>-0.6783931255340576</right_val></_>
          <_>
            <!-- node 1 -->
            <feature>
              <rects>
                <_>
                  2 7 14 2 -1.</_>
                <_>
                  2 8 14 1 2.</_></rects>
              <tilted>0</tilted></feature>
            <threshold>2.6584030129015446e-03</threshold>
            <left_val>-0.8773887753486633</left_val>
            <right_val>0.8196768760681152</right_val></_></_></trees>
      <stage_threshold>-1.2532399892807007</stage_threshold>
      <parent>0</parent>
      <next>-1</next></_>
    <_>
      <!-- stage 2 -->
      <trees>
        <_>
          <!-- tree 0 -->
          <_>
            <!-- root node -->
            <feature>
              <rects>
                <_>
                  3 5 12 1 -1.</_>
                <_>
                  7 5 4 1 3.</_></rects>
              <tilted>0</tilted></feature>
            <threshold>9.7040915861725807e-03</threshold>
            <left_val>-0.8423643708229065</left_val>
            <right_node>1</right_node></_>
          <_>
            <!-- node 1 -->
            <feature>
              <rects>
                <_>
                  1 2 16 14 -1.</_>
                <_>
                  1 9 16 7 2.</_></rects>
              <tilted>0</tilted></feature>
            <threshold>0.0488798916339874</threshold>
            <left_val>-0.9228894114494324</left_val>
            <right_val>0.7059836983680725</right_val></_></_>
        <_>
          <!-- tree 1 -->
          <_>
            <!-- root node -->
            <feature>
              <rects>
                <_>
                  14 1 4 6 -1.</_>
                <_>
                  15 1 2 6 2.</_></rects>
              <tilted>0</tilted></feature>
            <threshold>-7.3359342059120536e-04</threshold>
            <left_val>0.2227575927972794</left_val>
            <right_node>1</right_node></_>
          <_>
            <!-- node 1 -->
            <feature>
              <rects>
                <_>
                  7 2 4 18 -1.</_>
                <_>
                  8 2 2 18 2.</_></rects>
              <tilted>0</tilted></feature>
            <threshold>0.0341955311596394</threshold>
            <left_val>-0.5101590752601624</left_val>
            <right_val>0.7912592887878418</right_val></_></_>
        <_>
          <!-- tree 2 -->
          <_>
            <!-- root node -->
            <feature>
              <rects>
                <_>
                  0 0 4 20 -1.</_>
                <_>
                  1 0 2 20 2.</_></rects>
              <tilted>0</tilted></feature>
            <threshold>-0.0504937693476677</threshold>
            <left_val>0.9360932111740112</left_val>
            <right_node>1</right_node></_>
          <_>
            <!-- node 1 -->
            <feature>
              <rects>
                <_>
                  6 7 6 12 -1.</_>
                <_>
                  9 7 3 12 2.</_></rects>
              <tilted>0</tilted></feature>
            <threshold>-0.1082642003893852</threshold>
            <left_val>0.7838665246963501</left_val>
            <right_val>-0.8476380705833435</right_val></_></_>
        <_>
          <!-- tree 3 -->
          <_>
            <!-- root node -->
            <feature>
              <rects>
                <_>
                  7 7 6 8 -1.</_>
                <_>
                  9 7 2 8 3.</_></rects>
              <tilted>0</tilted></feature>
            <threshold>0.0300458297133446</threshold>
            <left_val>-0.4680005908012390</left_val>
            <right_node>1</right_node></_>
          <_>
            <!-- node 1 -->
            <feature>
              <rects>
                <_>
                  7 4 4 11 -1.</_>
                <_>
                  8 4 2 11 2.</_></rects>
              <tilted>0</tilted></feature>
            <threshold>0.0345001593232155</threshold>
            <left_val>-0.3195162117481232</left_val>
            <right_val>0.7741060256958008</right_val></_></_>
        <_>
          <!-- tree 4 -->
          <_>
            <!-- root node -->
            <feature>
              <rects>
                <_>
                  3 11 12 6 -1.</_>
                <_>
                  7 13 4 2 9.</_></rects>
              <tilted>0</tilted></feature>
            <threshold>-0.0254841204732656</threshold>
            <left_node>1</left_node>
            <right_val>-0.9339172840118408</right_val></_>
          <_>
            <!-- node 1 -->
            <feature>
              <rects>
                <_>
                  1 8 15 12 -1.</_>
                <_>
                  1 11 15 6 2.</_></rects>
              <tilted>0</tilted></feature>
            <threshold>-0.0174580495804548</threshold>
            <left_val>-0.6856135129928589</left_val>
            <right_val>0.8425043821334839</right_val></_></_></trees>
      <stage_threshold>-1.9052469730377197</stage_threshold>
      <parent>1</parent>
      <next>-1</next></_>
    <_>
      <!-- stage 3 -->
      <trees>
        <_>
          <!-- tree 0 -->
          <_>
            <!-- root node -->
            <feature>
              <rects>
                <_>
                  1 6 3 2 -1.</_>
                <_>
                  2 6 1 2 3.</_></rects>
              <tilted>0</tilted></feature>
            <threshold>-5.3305011533666402e-05</threshold>
            <left_node>1</left_node>
            <right_val>-0.8747231960296631</right_val></_>
          <_>
            <!-- node 1 -->
            <feature>
              <rects>
                <_>
                  9 0 6 1 -1.</_>
                <_>
                  9 0 3 1 2.</_></rects>
              <tilted>1</tilted></feature>
            <threshold>7.4957949109375477e-03</threshold>
            <left_val>-0.6308230161666870</left_val>
            <right_val>0.7800999283790588</right_val></_></_>
        <_>
          <!-- tree 1 -->
          <_>
            <!-- root node -->
            <feature>
              <rects>
                <_>
                  8 1 6 7 -1.</_>
                <_>
                  8 1 3 7 2.</_></rects>
              <tilted>0</tilted></feature>
            <threshold>0.0103665003553033</threshold>
            <left_val>-0.8330367207527161</left_val>
            <right_node>1</right_node></_>
          <_>
            <!-- node 1 -->
            <feature>
              <rects>
                <_>
                  4 16 11 4 -1.</_>
                <_>
                  4 17 11 2 2.</_></rects>
              <tilted>0</tilted></feature>
            <threshold>-8.8815670460462570e-03</threshold>
            <left_val>0.4378015100955963</left_val>
            <right_val>-0.8065932989120483</right_val></_></_>
        <_>
          <!-- tree 2 -->
          <_>
            <!-- root node -->
            <feature>
              <rects>
                <_>
                  4 6 1 2 -1.</_>
                <_>
                  4 7 1 1 2.</_></rects>
              <tilted>0</tilted></feature>
            <threshold>2.1805870346724987e-05</threshold>
            <left_val>-0.8416529893875122</left_val>
            <right_node>1</right_node></_>
          <_>
            <!-- node 1 -->
            <feature>
              <rects>
                <_>
                  1 11 16 4 -1.</_>
                <_>
                  5 11 8 4 2.</_></rects>
              <tilted>0</tilted></feature>
            <threshold>-5.7500121183693409e-03</threshold>
            <left_val>0.6558269262313843</left_val>
            <right_val>-0.8476091027259827</right_val></_></_></trees>
      <stage_threshold>-1.2785749435424805</stage_threshold>
      <parent>2</parent>
      <next>-1</next></_>
    <_>
      <!-- stage 4 -->
      <trees>
        <_>
          <!-- tree 0 -->
          <_>
            <!-- root node -->
            <feature>
              <rects>
                <_>
                  4 1 6 7 -1.</_>
                <_>
                  7 1 3 7 2.</_></rects>
              <tilted>0</tilted></feature>
            <threshold>0.0204628892242908</threshold>
            <left_val>-0.8377618789672852</left_val>
            <right_node>1</right_node></_>
          <_>
            <!-- node 1 -->
            <feature>
              <rects>
                <_>
                  5 16 8 4 -1.</_>
                <_>
                  5 17 8 2 2.</_></rects>
              <tilted>0</tilted></feature>
            <threshold>-0.0106818601489067</threshold>
            <left_val>0.7235180735588074</left_val>
            <right_val>-0.3816759884357452</right_val></_></_>
        <_>
          <!-- tree 1 -->
          <_>
            <!-- root node -->
            <feature>
              <rects>
                <_>
                  15 3 3 2 -1.</_>
                <_>
                  16 3 1 2 3.</_></rects>
              <tilted>0</tilted></feature>
            <threshold>-4.1790658724494278e-04</threshold>
            <left_val>0.2302720993757248</left_val>
            <right_node>1</right_node></_>
          <_>
            <!-- node 1 -->
            <feature>
              <rects>
                <_>
                  10 0 5 3 -1.</_>
                <_>
                  10 1 5 1 3.</_></rects>
              <tilted>0</tilted></feature>
            <threshold>0.0161219108849764</threshold>
            <left_val>-0.2216029018163681</left_val>
            <right_val>0.6424363255500793</right_val></_></_>
        <_>
          <!-- tree 2 -->
          <_>
            <!-- root node -->
            <feature>
              <rects>
                <_>
                  0 1 2 5 -1.</_>
                <_>
                  1 1 1 5 2.</_></rects>
              <tilted>0</tilted></feature>
            <threshold>-0.0147971296682954</threshold>
            <left_val>0.7649403214454651</left_val>
            <right_node>1</right_node></_>
          <_>
            <!-- node 1 -->
            <feature>
              <rects>
                <_>
                  0 6 2 9 -1.</_>
                <_>
                  1 6 1 9 2.</_></rects>
              <tilted>0</tilted></feature>
            <threshold>0.0242856405675411</threshold>
            <left_val>-0.7630699276924133</left_val>
            <right_val>0.7111259102821350</right_val></_></_>
        <_>
          <!-- tree 3 -->
          <_>
            <!-- root node -->
            <feature>
              <rects>
                <_>
                  8 3 2 12 -1.</_>
                <_>
                  8 3 1 12 2.</_></rects>
              <tilted>0</tilted></feature>
            <threshold>-0.0249127801507711</threshold>
            <left_node>1</left_node>
            <right_val>-0.3235684931278229</right_val></_>
          <_>
            <!-- node 1 -->
            <feature>
              <rects>
                <_>
                  6 8 6 7 -1.</_>
                <_>
                  6 8 3 7 2.</_></rects>
              <tilted>0</tilted></feature>
            <threshold>-0.0750465169548988</threshold>
            <left_val>0.7834647297859192</left_val>
            <right_val>-0.2720794081687927</right_val></_></_>
        <_>
          <!-- tree 4 -->
          <_>
            <!-- root node -->
            <feature>
              <rects>
                <_>
                  9 6 6 1 -1.</_>
                <_>
                  11 8 2 1 3.</_></rects>
              <tilted>1</tilted></feature>
            <threshold>-0.0151290800422430</threshold>
            <left_val>0.6769554018974304</left_val>
            <right_node>1</right_node></_>
          <_>
            <!-- node 1 -->
            <feature>
              <rects>
                <_>
                  7 2 4 18 -1.</_>
                <_>
                  9 2 2 18 2.</_></rects>
              <tilted>0</tilted></feature>
            <threshold>0.0920216664671898</threshold>
            <left_val>-0.8611314296722412</left_val>
            <right_val>0.6425551772117615</right_val></_></_>
        <_>
          <!-- tree 5 -->
          <_>
            <!-- root node -->
            <feature>
              <rects>
                <_>
                  1 8 16 12 -1.</_>
                <_>
                  1 8 8 12 2.</_></rects>
              <tilted>0</tilted></feature>
            <threshold>0.4069586992263794</threshold>
            <left_val>-0.4301243126392365</left_val>
            <right_node>1</right_node></_>
          <_>
            <!-- node 1 -->
            <feature>
              <rects>
                <_>
                  13 5 1 2 -1.</_>
                <_>
                  13 5 1 1 2.</_></rects>
              <tilted>1</tilted></feature>
            <threshold>2.3065580535330810e-05</threshold>
            <left_val>-0.1506115943193436</left_val>
            <right_val>0.0876893028616905</right_val></_></_></trees>
      <stage_threshold>-2.4675700664520264</stage_threshold>
      <parent>3</parent>
      <next>-1</next></_>
    <_>
      <!-- stage 5 -->
      <trees>
        <_>
          <!-- tree 0 -->
          <_>
            <!-- root node -->
            <feature>
              <rects>
                <_>
                  2 5 14 6 -1.</_>
                <_>
                  2 8 14 3 2.</_></rects>
              <tilted>0</tilted></feature>
            <threshold>0.0471867099404335</threshold>
            <left_val>-0.8487498164176941</left_val>
            <right_node>1</right_node></_>
          <_>
            <!-- node 1 -->
            <feature>
              <rects>
                <_>
                  6 2 6 18 -1.</_>
                <_>
                  6 11 6 9 2.</_></rects>
              <tilted>0</tilted></feature>
            <threshold>0.0284108594059944</threshold>
            <left_val>0.6485229134559631</left_val>
            <right_val>-0.8775163292884827</right_val></_></_>
        <_>
          <!-- tree 1 -->
          <_>
            <!-- root node -->
            <feature>
              <rects>
                <_>
                  12 6 3 1 -1.</_>
                <_>
                  13 6 1 1 3.</_></rects>
              <tilted>0</tilted></feature>
            <threshold>-3.1549620907753706e-03</threshold>
            <left_val>0.6484746932983398</left_val>
            <right_node>1</right_node></_>
          <_>
            <!-- node 1 -->
            <feature>
              <rects>
                <_>
                  7 5 4 7 -1.</_>
                <_>
                  7 5 2 7 2.</_></rects>
              <tilted>0</tilted></feature>
            <threshold>-0.0627385377883911</threshold>
            <left_val>0.7970983982086182</left_val>
            <right_val>-0.2947567999362946</right_val></_></_>
        <_>
          <!-- tree 2 -->
          <_>
            <!-- root node -->
            <feature>
              <rects>
                <_>
                  1 1 16 19 -1.</_>
                <_>
                  9 1 8 19 2.</_></rects>
              <tilted>0</tilted></feature>
            <threshold>-0.5469434261322021</threshold>
            <left_val>0.8253313899040222</left_val>
            <right_node>1</right_node></_>
          <_>
            <!-- node 1 -->
            <feature>
              <rects>
                <_>
                  6 6 4 6 -1.</_>
                <_>
                  7 6 2 6 2.</_></rects>
              <tilted>0</tilted></feature>
            <threshold>-0.0183453895151615</threshold>
            <left_val>0.2482396066188812</left_val>
            <right_val>-0.8366320133209229</right_val></_></_></trees>
      <stage_threshold>-1.0369069576263428</stage_threshold>
      <parent>4</parent>
      <next>-1</next></_>
    <_>
      <!-- stage 6 -->
      <trees>
        <_>
          <!-- tree 0 -->
          <_>
            <!-- root node -->
            <feature>
              <rects>
                <_>
                  1 1 16 4 -1.</_>
                <_>
                  1 2 16 2 2.</_></rects>
              <tilted>0</tilted></feature>
            <threshold>-0.0138794900849462</threshold>
            <left_node>1</left_node>
            <right_val>-0.5131806135177612</right_val></_>
          <_>
            <!-- node 1 -->
            <feature>
              <rects>
                <_>
                  1 2 16 9 -1.</_>
                <_>
                  1 5 16 3 3.</_></rects>
              <tilted>0</tilted></feature>
            <threshold>-0.0265481099486351</threshold>
            <left_val>0.7674040794372559</left_val>
            <right_val>-0.7630640864372253</right_val></_></_>
        <_>
          <!-- tree 1 -->
          <_>
            <!-- root node -->
            <feature>
              <rects>
                <_>
                  7 10 4 4 -1.</_>
                <_>
                  7 11 4 2 2.</_></rects>
              <tilted>0</tilted></feature>
            <threshold>3.9526550099253654e-03</threshold>
            <left_val>-0.5400332212448120</left_val>
            <right_node>1</right_node></_>
          <_>
            <!-- node 1 -->
            <feature>
              <rects>
                <_>
                  10 8 1 4 -1.</_>
                <_>
                  10 10 1 2 2.</_></rects>
              <tilted>0</tilted></feature>
            <threshold>-2.9276900459080935e-03</threshold>
            <left_val>-0.6758149266242981</left_val>
            <right_val>0.1459290981292725</right_val></_></_>
        <_>
          <!-- tree 2 -->
          <_>
            <!-- root node -->
            <feature>
              <rects>
                <_>
                  8 16 1 2 -1.</_>
                <_>
                  8 16 1 1 2.</_></rects>
              <tilted>1</tilted></feature>
            <threshold>2.3405320462188683e-05</threshold>
            <left_val>-0.6068878769874573</left_val>
            <right_node>1</right_node></_>
          <_>
            <!-- node 1 -->
            <feature>
              <rects>
                <_>
                  1 11 2 8 -1.</_>
                <_>
                  1 13 2 4 2.</_></rects>
              <tilted>0</tilted></feature>
            <threshold>6.8158530630171299e-03</threshold>
            <left_val>0.6737446784973145</left_val>
            <right_val>-0.8694251179695129</right_val></_></_>
        <_>
          <!-- tree 3 -->
          <_>
            <!-- root node -->
            <feature>
              <rects>
                <_>
                  14 4 1 3 -1.</_>
                <_>
                  14 5 1 1 3.</_></rects>
              <tilted>0</tilted></feature>
            <threshold>-3.8927220157347620e-04</threshold>
            <left_node>1</left_node>
            <right_val>-0.4052864015102386</right_val></_>
          <_>
            <!-- node 1 -->
            <feature>
              <rects>
                <_>
                  15 6 2 2 -1.</_>
                <_>
                  15 6 1 2 2.</_></rects>
              <tilted>0</tilted></feature>
            <threshold>1.5919490251690149e-03</threshold>
            <left_val>0.1546995937824249</left_val>
            <right_val>-0.6368929743766785</right_val></_></_>
        <_>
          <!-- tree 4 -->
          <_>
            <!-- root node -->
            <feature>
              <rects>
                <_>
                  5 10 4 2 -1.</_>
                <_>
                  5 10 4 1 2.</_></rects>
              <tilted>1</tilted></feature>
            <threshold>1.4238969888538122e-03</threshold>
            <left_node>1</left_node>
            <right_val>-0.9102830886840820</right_val></_>
          <_>
            <!-- node 1 -->
            <feature>
              <rects>
                <_>
                  4 4 1 3 -1.</_>
                <_>
                  3 5 1 1 3.</_></rects>
              <tilted>1</tilted></feature>
            <threshold>-2.4630349798826501e-05</threshold>
            <left_val>0.6006703972816467</left_val>
            <right_val>-0.7522150874137878</right_val></_></_></trees>
      <stage_threshold>-1.5716550350189209</stage_threshold>
      <parent>5</parent>
      <next>-1</next></_>
    <_>
      <!-- stage 7 -->
      <trees>
        <_>
          <!-- tree 0 -->
          <_>
            <!-- root node -->
            <feature>
              <rects>
                <_>
                  3 4 3 3 -1.</_>
                <_>
                  4 5 1 1 9.</_></rects>
              <tilted>0</tilted></feature>
            <threshold>-0.0118234204128385</threshold>
            <left_val>0.5920192003250122</left_val>
            <right_node>1</right_node></_>
          <_>
            <!-- node 1 -->
            <feature>
              <rects>
                <_>
                  1 9 16 8 -1.</_>
                <_>
                  9 9 8 8 2.</_></rects>
              <tilted>0</tilted></feature>
            <threshold>0.3649075031280518</threshold>
            <left_val>-0.6242765784263611</left_val>
            <right_val>0.8441007733345032</right_val></_></_>
        <_>
          <!-- tree 1 -->
          <_>
            <!-- root node -->
            <feature>
              <rects>
                <_>
                  1 1 16 2 -1.</_>
                <_>
                  5 1 8 2 2.</_></rects>
              <tilted>0</tilted></feature>
            <threshold>0.0320808291435242</threshold>
            <left_node>1</left_node>
            <right_val>0.5365418791770935</right_val></_>
          <_>
            <!-- node 1 -->
            <feature>
              <rects>
                <_>
                  1 7 16 10 -1.</_>
                <_>
                  1 7 8 10 2.</_></rects>
              <tilted>0</tilted></feature>
            <threshold>0.3638460934162140</threshold>
            <left_val>-0.3008764982223511</left_val>
            <right_val>0.7236393094062805</right_val></_></_>
        <_>
          <!-- tree 2 -->
          <_>
            <!-- root node -->
            <feature>
              <rects>
                <_>
                  0 1 3 19 -1.</_>
                <_>
                  1 1 1 19 3.</_></rects>
              <tilted>0</tilted></feature>
            <threshold>-0.0602425895631313</threshold>
            <left_val>0.6580163240432739</left_val>
            <right_node>1</right_node></_>
          <_>
            <!-- node 1 -->
            <feature>
              <rects>
                <_>
                  2 0 9 3 -1.</_>
                <_>
                  2 1 9 1 3.</_></rects>
              <tilted>0</tilted></feature>
            <threshold>0.0286490693688393</threshold>
            <left_val>-0.7340909838676453</left_val>
            <right_val>0.5733206868171692</right_val></_></_>
        <_>
          <!-- tree 3 -->
          <_>
            <!-- root node -->
            <feature>
              <rects>
                <_>
                  5 17 8 3 -1.</_>
                <_>
                  5 18 8 1 3.</_></rects>
              <tilted>0</tilted></feature>
            <threshold>-0.0125269601121545</threshold>
            <left_node>1</left_node>
            <right_val>-0.5367416143417358</right_val></_>
          <_>
            <!-- node 1 -->
            <feature>
              <rects>
                <_>
                  15 16 1 4 -1.</_>
                <_>
                  15 17 1 2 2.</_></rects>
              <tilted>0</tilted></feature>
            <threshold>-1.3896629679948092e-03</threshold>
            <left_val>-0.8308473825454712</left_val>
            <right_val>0.1314195990562439</right_val></_></_></trees>
      <stage_threshold>-1.3585669994354248</stage_threshold>
      <parent>6</parent>
      <next>-1</next></_>
    <_>
      <!-- stage 8 -->
      <trees>
        <_>
          <!-- tree 0 -->
          <_>
            <!-- root node -->
            <feature>
              <rects>
                <_>
                  5 17 8 3 -1.</_>
                <_>
                  5 18 8 1 3.</_></rects>
              <tilted>0</tilted></feature>
            <threshold>-0.0130068296566606</threshold>
            <left_val>0.5298358798027039</left_val>
            <right_node>1</right_node></_>
          <_>
            <!-- node 1 -->
            <feature>
              <rects>
                <_>
                  0 0 18 2 -1.</_>
                <_>
                  0 1 18 1 2.</_></rects>
              <tilted>0</tilted></feature>
            <threshold>-0.0401949398219585</threshold>
            <left_val>0.6891012787818909</left_val>
            <right_val>-0.6687874794006348</right_val></_></_>
        <_>
          <!-- tree 1 -->
          <_>
            <!-- root node -->
            <feature>
              <rects>
                <_>
                  8 2 4 5 -1.</_>
                <_>
                  8 2 2 5 2.</_></rects>
              <tilted>0</tilted></feature>
            <threshold>0.0267996191978455</threshold>
            <left_val>-0.2659834027290344</left_val>
            <right_node>1</right_node></_>
          <_>
            <!-- node 1 -->
            <feature>
              <rects>
                <_>
                  9 0 2 8 -1.</_>
                <_>
                  7 2 2 4 2.</_></rects>
              <tilted>1</tilted></feature>
            <threshold>-8.0127827823162079e-03</threshold>
            <left_val>0.1031079962849617</left_val>
            <right_val>-0.8168482184410095</right_val></_></_>
        <_>
          <!-- tree 2 -->
          <_>
            <!-- root node -->
            <feature>
              <rects>
                <_>
                  6 2 4 5 -1.</_>
                <_>
                  8 2 2 5 2.</_></rects>
              <tilted>0</tilted></feature>
            <threshold>8.6200740188360214e-03</threshold>
            <left_val>-0.6558271050453186</left_val>
            <right_node>1</right_node></_>
          <_>
            <!-- node 1 -->
            <feature>
              <rects>
                <_>
                  9 0 8 2 -1.</_>
                <_>
                  11 2 4 2 2.</_></rects>
              <tilted>1</tilted></feature>
            <threshold>-4.9148721154779196e-04</threshold>
            <left_val>0.6294059753417969</left_val>
            <right_val>-0.7405244112014771</right_val></_></_>
        <_>
          <!-- tree 3 -->
          <_>
            <!-- root node -->
            <feature>
              <rects>
                <_>
                  15 16 1 4 -1.</_>
                <_>
                  15 18 1 2 2.</_></rects>
              <tilted>0</tilted></feature>
            <threshold>7.3255068855360150e-04</threshold>
            <left_node>1</left_node>
            <right_val>-0.7009884119033813</right_val></_>
          <_>
            <!-- node 1 -->
            <feature>
              <rects>
                <_>
                  14 15 3 4 -1.</_>
                <_>
                  14 16 3 2 2.</_></rects>
              <tilted>0</tilted></feature>
            <threshold>4.3092099949717522e-03</threshold>
            <left_val>0.1654442995786667</left_val>
            <right_val>-0.9278532862663269</right_val></_></_>
        <_>
          <!-- tree 4 -->
          <_>
            <!-- root node -->
            <feature>
              <rects>
                <_>
                  3 6 2 1 -1.</_>
                <_>
                  3 6 1 1 2.</_></rects>
              <tilted>1</tilted></feature>
            <threshold>-4.9297228542855009e-05</threshold>
            <left_node>1</left_node>
            <right_val>-0.8713214993476868</right_val></_>
          <_>
            <!-- node 1 -->
            <feature>
              <rects>
                <_>
                  8 7 1 4 -1.</_>
                <_>
                  8 8 1 2 2.</_></rects>
              <tilted>0</tilted></feature>
            <threshold>1.4184979954734445e-03</threshold>
            <left_val>0.5126872062683105</left_val>
            <right_val>-0.8312041759490967</right_val></_></_>
        <_>
          <!-- tree 5 -->
          <_>
            <!-- root node -->
            <feature>
              <rects>
                <_>
                  6 12 6 3 -1.</_>
                <_>
                  6 13 6 1 3.</_></rects>
              <tilted>0</tilted></feature>
            <threshold>-7.9669114202260971e-03</threshold>
            <left_node>1</left_node>
            <right_val>-0.4951102137565613</right_val></_>
          <_>
            <!-- node 1 -->
            <feature>
              <rects>
                <_>
                  14 8 2 5 -1.</_>
                <_>
                  14 8 1 5 2.</_></rects>
              <tilted>1</tilted></feature>
            <threshold>0.0112630398944020</threshold>
            <left_val>0.0692106932401657</left_val>
            <right_val>-0.7299544215202332</right_val></_></_></trees>
      <stage_threshold>-1.7411969900131226</stage_threshold>
      <parent>7</parent>
      <next>-1</next></_>
    <_>
      <!-- stage 9 -->
      <trees>
        <_>
          <!-- tree 0 -->
          <_>
            <!-- root node -->
            <feature>
              <rects>
                <_>
                  6 15 6 3 -1.</_>
                <_>
                  6 16 6 1 3.</_></rects>
              <tilted>0</tilted></feature>
            <threshold>4.2709307745099068e-03</threshold>
            <left_val>-0.5911055803298950</left_val>
            <right_node>1</right_node></_>
          <_>
            <!-- node 1 -->
            <feature>
              <rects>
                <_>
                  3 7 12 2 -1.</_>
                <_>
                  3 8 12 1 2.</_></rects>
              <tilted>0</tilted></feature>
            <threshold>2.8562189545482397e-03</threshold>
            <left_val>-0.7984352111816406</left_val>
            <right_val>0.5685763955116272</right_val></_></_>
        <_>
          <!-- tree 1 -->
          <_>
            <!-- root node -->
            <feature>
              <rects>
                <_>
                  2 1 14 4 -1.</_>
                <_>
                  2 2 14 2 2.</_></rects>
              <tilted>0</tilted></feature>
            <threshold>-9.5103178173303604e-03</threshold>
            <left_node>1</left_node>
            <right_val>-0.5256369113922119</right_val></_>
          <_>
            <!-- node 1 -->
            <feature>
              <rects>
                <_>
                  15 12 2 6 -1.</_>
                <_>
                  15 14 2 2 3.</_></rects>
              <tilted>0</tilted></feature>
            <threshold>6.6933180205523968e-03</threshold>
            <left_val>0.1559752970933914</left_val>
            <right_val>-0.9411792159080505</right_val></_></_>
        <_>
          <!-- tree 2 -->
          <_>
            <!-- root node -->
            <feature>
              <rects>
                <_>
                  3 0 2 15 -1.</_>
                <_>
                  3 5 2 5 3.</_></rects>
              <tilted>0</tilted></feature>
            <threshold>-2.8283550636842847e-04</threshold>
            <left_node>1</left_node>
            <right_val>-0.7719317078590393</right_val></_>
          <_>
            <!-- node 1 -->
            <feature>
              <rects>
                <_>
                  1 1 3 8 -1.</_>
                <_>
                  1 5 3 4 2.</_></rects>
              <tilted>0</tilted></feature>
            <threshold>-0.0147773995995522</threshold>
            <left_val>-0.7440419197082520</left_val>
            <right_val>0.5787063837051392</right_val></_></_>
        <_>
          <!-- tree 3 -->
          <_>
            <!-- root node -->
            <feature>
              <rects>
                <_>
                  7 10 4 4 -1.</_>
                <_>
                  7 11 4 2 2.</_></rects>
              <tilted>0</tilted></feature>
            <threshold>4.3342132121324539e-03</threshold>
            <left_val>-0.5539814233779907</left_val>
            <right_node>1</right_node></_>
          <_>
            <!-- node 1 -->
            <feature>
              <rects>
                <_>
                  10 8 1 4 -1.</_>
                <_>
                  10 10 1 2 2.</_></rects>
              <tilted>0</tilted></feature>
            <threshold>-2.2053909488022327e-03</threshold>
            <left_val>-0.5999267101287842</left_val>
            <right_val>0.1073575988411903</right_val></_></_>
        <_>
          <!-- tree 4 -->
          <_>
            <!-- root node -->
            <feature>
              <rects>
                <_>
                  7 7 3 2 -1.</_>
                <_>
                  7 8 3 1 2.</_></rects>
              <tilted>0</tilted></feature>
            <threshold>2.8975130990147591e-03</threshold>
            <left_node>1</left_node>
            <right_val>-0.8707637190818787</right_val></_>
          <_>
            <!-- node 1 -->
            <feature>
              <rects>
                <_>
                  8 10 2 3 -1.</_>
                <_>
                  7 11 2 1 3.</_></rects>
              <tilted>1</tilted></feature>
            <threshold>-6.0423230024753138e-05</threshold>
            <left_val>0.5604090094566345</left_val>
            <right_val>-0.4664388895034790</right_val></_></_>
        <_>
          <!-- tree 5 -->
          <_>
            <!-- root node -->
            <feature>
              <rects>
                <_>
                  12 6 2 2 -1.</_>
                <_>
                  13 6 1 1 2.</_>
                <_>
                  12 7 1 1 2.</_></rects>
              <tilted>0</tilted></feature>
            <threshold>-5.5399370467057452e-05</threshold>
            <left_val>0.3597922921180725</left_val>
            <right_node>1</right_node></_>
          <_>
            <!-- node 1 -->
            <feature>
              <rects>
                <_>
                  1 1 16 19 -1.</_>
                <_>
                  1 1 8 19 2.</_></rects>
              <tilted>0</tilted></feature>
            <threshold>-0.6086264252662659</threshold>
            <left_val>0.8365309834480286</left_val>
            <right_val>-0.1948557049036026</right_val></_></_>
        <_>
          <!-- tree 6 -->
          <_>
            <!-- root node -->
            <feature>
              <rects>
                <_>
                  0 1 2 19 -1.</_>
                <_>
                  1 1 1 19 2.</_></rects>
              <tilted>0</tilted></feature>
            <threshold>-0.0505735389888287</threshold>
            <left_val>0.4667451977729797</left_val>
            <right_node>1</right_node></_>
          <_>
            <!-- node 1 -->
            <feature>
              <rects>
                <_>
                  8 6 6 2 -1.</_>
                <_>
                  8 6 3 2 2.</_></rects>
              <tilted>1</tilted></feature>
            <threshold>0.0471701212227345</threshold>
            <left_val>-0.7302287220954895</left_val>
            <right_val>0.4942817986011505</right_val></_></_></trees>
      <stage_threshold>-1.4546099901199341</stage_threshold>
      <parent>8</parent>
      <next>-1</next></_>
    <_>
      <!-- stage 10 -->
      <trees>
        <_>
          <!-- tree 0 -->
          <_>
            <!-- root node -->
            <feature>
              <rects>
                <_>
                  3 6 2 2 -1.</_>
                <_>
                  3 6 1 1 2.</_>
                <_>
                  4 7 1 1 2.</_></rects>
              <tilted>0</tilted></feature>
            <threshold>8.4779248572885990e-04</threshold>
            <left_val>-0.4730742871761322</left_val>
            <right_node>1</right_node></_>
          <_>
            <!-- node 1 -->
            <feature>
              <rects>
                <_>
                  2 6 1 2 -1.</_>
                <_>
                  2 7 1 1 2.</_></rects>
              <tilted>0</tilted></feature>
            <threshold>2.5867380827548914e-05</threshold>
            <left_val>-0.5271189212799072</left_val>
            <right_val>0.6968116164207458</right_val></_></_>
        <_>
          <!-- tree 1 -->
          <_>
            <!-- root node -->
            <feature>
              <rects>
                <_>
                  9 2 2 2 -1.</_>
                <_>
                  9 3 2 1 2.</_></rects>
              <tilted>0</tilted></feature>
            <threshold>-2.4159469467122108e-04</threshold>
            <left_node>1</left_node>
            <right_val>-0.4239704906940460</right_val></_>
          <_>
            <!-- node 1 -->
            <feature>
              <rects>
                <_>
                  15 16 1 4 -1.</_>
                <_>
                  15 18 1 2 2.</_></rects>
              <tilted>0</tilted></feature>
            <threshold>2.9288060613907874e-04</threshold>
            <left_val>0.1755405962467194</left_val>
            <right_val>-0.5548493862152100</right_val></_></_>
        <_>
          <!-- tree 2 -->
          <_>
            <!-- root node -->
            <feature>
              <rects>
                <_>
                  1 16 15 4 -1.</_>
                <_>
                  1 17 15 2 2.</_></rects>
              <tilted>0</tilted></feature>
            <threshold>-5.9791388921439648e-03</threshold>
            <left_node>1</left_node>
            <right_val>-0.7323474287986755</right_val></_>
          <_>
            <!-- node 1 -->
            <feature>
              <rects>
                <_>
                  2 16 1 4 -1.</_>
                <_>
                  2 17 1 2 2.</_></rects>
              <tilted>0</tilted></feature>
            <threshold>-1.5547910006716847e-03</threshold>
            <left_val>-0.8989933133125305</left_val>
            <right_val>0.5513929128646851</right_val></_></_>
        <_>
          <!-- tree 3 -->
          <_>
            <!-- root node -->
            <feature>
              <rects>
                <_>
                  7 4 6 5 -1.</_>
                <_>
                  9 4 2 5 3.</_></rects>
              <tilted>0</tilted></feature>
            <threshold>0.0618750192224979</threshold>
            <left_val>-0.2632082998752594</left_val>
            <right_node>1</right_node></_>
          <_>
            <!-- node 1 -->
            <feature>
              <rects>
                <_>
                  9 8 1 6 -1.</_>
                <_>
                  7 10 1 2 3.</_></rects>
              <tilted>1</tilted></feature>
            <threshold>-0.0268286895006895</threshold>
            <left_val>-0.7652235031127930</left_val>
            <right_val>0.0201824400573969</right_val></_></_>
        <_>
          <!-- tree 4 -->
          <_>
            <!-- root node -->
            <feature>
              <rects>
                <_>
                  2 2 14 14 -1.</_>
                <_>
                  2 9 14 7 2.</_></rects>
              <tilted>0</tilted></feature>
            <threshold>0.0553276203572750</threshold>
            <left_val>-0.7683764100074768</left_val>
            <right_node>1</right_node></_>
          <_>
            <!-- node 1 -->
            <feature>
              <rects>
                <_>
                  2 7 6 7 -1.</_>
                <_>
                  5 7 3 7 2.</_></rects>
              <tilted>0</tilted></feature>
            <threshold>1.0594379855319858e-03</threshold>
            <left_val>0.5201528072357178</left_val>
            <right_val>-0.6548669934272766</right_val></_></_>
        <_>
          <!-- tree 5 -->
          <_>
            <!-- root node -->
            <feature>
              <rects>
                <_>
                  1 9 16 11 -1.</_>
                <_>
                  1 9 8 11 2.</_></rects>
              <tilted>0</tilted></feature>
            <threshold>-0.3533383905887604</threshold>
            <left_node>1</left_node>
            <right_val>-0.2220280021429062</right_val></_>
          <_>
            <!-- node 1 -->
            <feature>
              <rects>
                <_>
                  9 7 1 6 -1.</_>
                <_>
                  7 9 1 2 3.</_></rects>
              <tilted>1</tilted></feature>
            <threshold>-0.0171856191009283</threshold>
            <left_val>-0.7497850060462952</left_val>
            <right_val>0.0939357429742813</right_val></_></_></trees>
      <stage_threshold>-1.5706299543380737</stage_threshold>
      <parent>9</parent>
      <next>-1</next></_>
    <_>
      <!-- stage 11 -->
      <trees>
        <_>
          <!-- tree 0 -->
          <_>
            <!-- root node -->
            <feature>
              <rects>
                <_>
                  2 3 3 3 -1.</_>
                <_>
                  2 4 3 1 3.</_></rects>
              <tilted>0</tilted></feature>
            <threshold>3.8308089133352041e-03</threshold>
            <left_node>1</left_node>
            <right_val>0.4674172103404999</right_val></_>
          <_>
            <!-- node 1 -->
            <feature>
              <rects>
                <_>
                  1 1 16 19 -1.</_>
                <_>
                  9 1 8 19 2.</_></rects>
              <tilted>0</tilted></feature>
            <threshold>0.7174996733665466</threshold>
            <left_val>-0.6252648830413818</left_val>
            <right_val>0.6012846231460571</right_val></_></_>
        <_>
          <!-- tree 1 -->
          <_>
            <!-- root node -->
            <feature>
              <rects>
                <_>
                  12 6 3 1 -1.</_>
                <_>
                  13 6 1 1 3.</_></rects>
              <tilted>0</tilted></feature>
            <threshold>-4.3900390155613422e-03</threshold>
            <left_val>0.5657358765602112</left_val>
            <right_node>1</right_node></_>
          <_>
            <!-- node 1 -->
            <feature>
              <rects>
                <_>
                  11 3 3 6 -1.</_>
                <_>
                  9 5 3 2 3.</_></rects>
              <tilted>1</tilted></feature>
            <threshold>0.0469826795160770</threshold>
            <left_val>-0.0103149302303791</left_val>
            <right_val>-0.5692026019096375</right_val></_></_>
        <_>
          <!-- tree 2 -->
          <_>
            <!-- root node -->
            <feature>
              <rects>
                <_>
                  6 8 6 7 -1.</_>
                <_>
                  9 8 3 7 2.</_></rects>
              <tilted>0</tilted></feature>
            <threshold>-0.0734497606754303</threshold>
            <left_val>0.6236721873283386</left_val>
            <right_node>1</right_node></_>
          <_>
            <!-- node 1 -->
            <feature>
              <rects>
                <_>
                  9 1 9 1 -1.</_>
                <_>
                  12 4 3 1 3.</_></rects>
              <tilted>1</tilted></feature>
            <threshold>-0.0433270782232285</threshold>
            <left_val>0.1734583973884583</left_val>
            <right_val>-0.8835241198539734</right_val></_></_>
        <_>
          <!-- tree 3 -->
          <_>
            <!-- root node -->
            <feature>
              <rects>
                <_>
                  12 6 3 1 -1.</_>
                <_>
                  13 6 1 1 3.</_></rects>
              <tilted>0</tilted></feature>
            <threshold>-1.9729200284928083e-03</threshold>
            <left_val>0.1389746069908142</left_val>
            <right_node>1</right_node></_>
          <_>
            <!-- node 1 -->
            <feature>
              <rects>
                <_>
                  16 0 2 7 -1.</_>
                <_>
                  16 0 1 7 2.</_></rects>
              <tilted>0</tilted></feature>
            <threshold>-2.9047809075564146e-03</threshold>
            <left_val>-0.0398432500660419</left_val>
            <right_val>-0.2258052974939346</right_val></_></_>
        <_>
          <!-- tree 4 -->
          <_>
            <!-- root node -->
            <feature>
              <rects>
                <_>
                  3 6 3 1 -1.</_>
                <_>
                  4 6 1 1 3.</_></rects>
              <tilted>0</tilted></feature>
            <threshold>-4.6396409161388874e-03</threshold>
            <left_val>0.5199369788169861</left_val>
            <right_node>1</right_node></_>
          <_>
            <!-- node 1 -->
            <feature>
              <rects>
                <_>
                  0 0 2 7 -1.</_>
                <_>
                  1 0 1 7 2.</_></rects>
              <tilted>0</tilted></feature>
            <threshold>-0.0296576190739870</threshold>
            <left_val>0.3476819992065430</left_val>
            <right_val>-0.6399037837982178</right_val></_></_>
        <_>
          <!-- tree 5 -->
          <_>
            <!-- root node -->
            <feature>
              <rects>
                <_>
                  7 3 4 12 -1.</_>
                <_>
                  8 3 2 12 2.</_></rects>
              <tilted>0</tilted></feature>
            <threshold>0.0391245409846306</threshold>
            <left_node>1</left_node>
            <right_val>0.5575873851776123</right_val></_>
          <_>
            <!-- node 1 -->
            <feature>
              <rects>
                <_>
                  7 2 4 11 -1.</_>
                <_>
                  7 2 2 11 2.</_></rects>
              <tilted>0</tilted></feature>
            <threshold>-0.0813452526926994</threshold>
            <left_val>0.6187021136283875</left_val>
            <right_val>-0.1924351006746292</right_val></_></_></trees>
      <stage_threshold>-1.0700520277023315</stage_threshold>
      <parent>10</parent>
      <next>-1</next></_>
    <_>
      <!-- stage 12 -->
      <trees>
        <_>
          <!-- tree 0 -->
          <_>
            <!-- root node -->
            <feature>
              <rects>
                <_>
                  7 12 4 3 -1.</_>
                <_>
                  7 13 4 1 3.</_></rects>
              <tilted>0</tilted></feature>
            <threshold>-7.3962910100817680e-03</threshold>
            <left_node>1</left_node>
            <right_val>-0.4029659032821655</right_val></_>
          <_>
            <!-- node 1 -->
            <feature>
              <rects>
                <_>
                  7 8 1 4 -1.</_>
                <_>
                  7 10 1 2 2.</_></rects>
              <tilted>0</tilted></feature>
            <threshold>1.9443810451775789e-03</threshold>
            <left_val>0.6589549779891968</left_val>
            <right_val>-0.8554760813713074</right_val></_></_>
        <_>
          <!-- tree 1 -->
          <_>
            <!-- root node -->
            <feature>
              <rects>
                <_>
                  9 4 6 2 -1.</_>
                <_>
                  11 6 2 2 3.</_></rects>
              <tilted>1</tilted></feature>
            <threshold>-0.0272629000246525</threshold>
            <left_node>1</left_node>
            <right_val>-0.1137581989169121</right_val></_>
          <_>
            <!-- node 1 -->
            <feature>
              <rects>
                <_>
                  4 5 10 4 -1.</_>
                <_>
                  4 7 10 2 2.</_></rects>
              <tilted>0</tilted></feature>
            <threshold>7.0143188349902630e-03</threshold>
            <left_val>-0.7542383074760437</left_val>
            <right_val>0.2371540069580078</right_val></_></_>
        <_>
          <!-- tree 2 -->
          <_>
            <!-- root node -->
            <feature>
              <rects>
                <_>
                  9 4 2 6 -1.</_>
                <_>
                  7 6 2 2 3.</_></rects>
              <tilted>1</tilted></feature>
            <threshold>-4.3674958869814873e-03</threshold>
            <left_node>1</left_node>
            <right_val>-0.7374423146247864</right_val></_>
          <_>
            <!-- node 1 -->
            <feature>
              <rects>
                <_>
                  1 3 16 9 -1.</_>
                <_>
                  5 3 8 9 2.</_></rects>
              <tilted>0</tilted></feature>
            <threshold>-0.0589414387941360</threshold>
            <left_val>-0.8431971073150635</left_val>
            <right_val>0.4966233968734741</right_val></_></_>
        <_>
          <!-- tree 3 -->
          <_>
            <!-- root node -->
            <feature>
              <rects>
                <_>
                  7 0 10 2 -1.</_>
                <_>
                  12 0 5 1 2.</_>
                <_>
                  7 1 5 1 2.</_></rects>
              <tilted>0</tilted></feature>
            <threshold>0.0113544603809714</threshold>
            <left_node>1</left_node>
            <right_val>0.4745725095272064</right_val></_>
          <_>
            <!-- node 1 -->
            <feature>
              <rects>
                <_>
                  1 1 16 19 -1.</_>
                <_>
                  1 1 8 19 2.</_></rects>
              <tilted>0</tilted></feature>
            <threshold>-0.4610557854175568</threshold>
            <left_val>0.5595527887344360</left_val>
            <right_val>-0.2876394093036652</right_val></_></_>
        <_>
          <!-- tree 4 -->
          <_>
            <!-- root node -->
            <feature>
              <rects>
                <_>
                  1 0 3 2 -1.</_>
                <_>
                  1 1 3 1 2.</_></rects>
              <tilted>0</tilted></feature>
            <threshold>-9.4327786937355995e-03</threshold>
            <left_val>0.4731622934341431</left_val>
            <right_node>1</right_node></_>
          <_>
            <!-- node 1 -->
            <feature>
              <rects>
                <_>
                  3 0 12 3 -1.</_>
                <_>
                  3 1 12 1 3.</_></rects>
              <tilted>0</tilted></feature>
            <threshold>0.0389614999294281</threshold>
            <left_val>-0.6867833137512207</left_val>
            <right_val>0.3758527040481567</right_val></_></_>
        <_>
          <!-- tree 5 -->
          <_>
            <!-- root node -->
            <feature>
              <rects>
                <_>
                  1 1 16 18 -1.</_>
                <_>
                  1 1 8 18 2.</_></rects>
              <tilted>0</tilted></feature>
            <threshold>0.6383587718009949</threshold>
            <left_val>-0.3144598007202148</left_val>
            <right_node>1</right_node></_>
          <_>
            <!-- node 1 -->
            <feature>
              <rects>
                <_>
                  3 9 12 6 -1.</_>
                <_>
                  6 9 6 6 2.</_></rects>
              <tilted>0</tilted></feature>
            <threshold>-0.1015968993306160</threshold>
            <left_val>0.6076869964599609</left_val>
            <right_val>-0.2367434054613113</right_val></_></_>
        <_>
          <!-- tree 6 -->
          <_>
            <!-- root node -->
            <feature>
              <rects>
                <_>
                  2 5 2 2 -1.</_>
                <_>
                  2 5 1 1 2.</_>
                <_>
                  3 6 1 1 2.</_></rects>
              <tilted>0</tilted></feature>
            <threshold>4.9615191528573632e-05</threshold>
            <left_val>-0.4866419136524200</left_val>
            <right_node>1</right_node></_>
          <_>
            <!-- node 1 -->
            <feature>
              <rects>
                <_>
                  1 6 16 9 -1.</_>
                <_>
                  1 9 16 3 3.</_></rects>
              <tilted>0</tilted></feature>
            <threshold>0.0245471391826868</threshold>
            <left_val>-0.8406537771224976</left_val>
            <right_val>0.6244305968284607</right_val></_></_>
        <_>
          <!-- tree 7 -->
          <_>
            <!-- root node -->
            <feature>
              <rects>
                <_>
                  1 1 16 18 -1.</_>
                <_>
                  1 1 8 18 2.</_></rects>
              <tilted>0</tilted></feature>
            <threshold>0.6364753246307373</threshold>
            <left_val>-0.1701844930648804</left_val>
            <right_node>1</right_node></_>
          <_>
            <!-- node 1 -->
            <feature>
              <rects>
                <_>
                  3 9 12 6 -1.</_>
                <_>
                  6 9 6 6 2.</_></rects>
              <tilted>0</tilted></feature>
            <threshold>-0.0915642231702805</threshold>
            <left_val>0.6221548914909363</left_val>
            <right_val>-0.1516599059104919</right_val></_></_>
        <_>
          <!-- tree 8 -->
          <_>
            <!-- root node -->
            <feature>
              <rects>
                <_>
                  1 11 4 4 -1.</_>
                <_>
                  1 12 4 2 2.</_></rects>
              <tilted>0</tilted></feature>
            <threshold>-4.3823081068694592e-03</threshold>
            <left_val>-0.9278913736343384</left_val>
            <right_node>1</right_node></_>
          <_>
            <!-- node 1 -->
            <feature>
              <rects>
                <_>
                  1 12 2 6 -1.</_>
                <_>
                  1 14 2 2 3.</_></rects>
              <tilted>0</tilted></feature>
            <threshold>-7.2787739336490631e-03</threshold>
            <left_val>-0.7155715227127075</left_val>
            <right_val>0.4951612949371338</right_val></_></_></trees>
      <stage_threshold>-1.5936419963836670</stage_threshold>
      <parent>11</parent>
      <next>-1</next></_>
    <_>
      <!-- stage 13 -->
      <trees>
        <_>
          <!-- tree 0 -->
          <_>
            <!-- root node -->
            <feature>
              <rects>
                <_>
                  1 5 2 8 -1.</_>
                <_>
                  1 5 1 4 2.</_>
                <_>
                  2 9 1 4 2.</_></rects>
              <tilted>0</tilted></feature>
            <threshold>3.6136750131845474e-03</threshold>
            <left_val>-0.5299801826477051</left_val>
            <right_node>1</right_node></_>
          <_>
            <!-- node 1 -->
            <feature>
              <rects>
                <_>
                  9 5 8 7 -1.</_>
                <_>
                  11 7 4 7 2.</_></rects>
              <tilted>1</tilted></feature>
            <threshold>5.4798568598926067e-03</threshold>
            <left_val>0.5780938863754272</left_val>
            <right_val>-0.6202335953712463</right_val></_></_>
        <_>
          <!-- tree 1 -->
          <_>
            <!-- root node -->
            <feature>
              <rects>
                <_>
                  9 2 2 2 -1.</_>
                <_>
                  9 3 2 1 2.</_></rects>
              <tilted>0</tilted></feature>
            <threshold>-6.2828848604112864e-04</threshold>
            <left_node>1</left_node>
            <right_val>-0.2599005103111267</right_val></_>
          <_>
            <!-- node 1 -->
            <feature>
              <rects>
                <_>
                  15 16 1 4 -1.</_>
                <_>
                  15 18 1 2 2.</_></rects>
              <tilted>0</tilted></feature>
            <threshold>-4.9508651718497276e-03</threshold>
            <left_val>-0.6850315928459167</left_val>
            <right_val>0.0748687535524368</right_val></_></_>
        <_>
          <!-- tree 2 -->
          <_>
            <!-- root node -->
            <feature>
              <rects>
                <_>
                  4 1 14 1 -1.</_>
                <_>
                  4 1 7 1 2.</_></rects>
              <tilted>1</tilted></feature>
            <threshold>-0.0766966268420219</threshold>
            <left_val>0.7088611125946045</left_val>
            <right_node>1</right_node></_>
          <_>
            <!-- node 1 -->
            <feature>
              <rects>
                <_>
                  8 3 4 4 -1.</_>
                <_>
                  9 4 2 4 2.</_></rects>
              <tilted>1</tilted></feature>
            <threshold>0.0222250595688820</threshold>
            <left_val>-0.7216848731040955</left_val>
            <right_val>0.4140258133411407</right_val></_></_>
        <_>
          <!-- tree 3 -->
          <_>
            <!-- root node -->
            <feature>
              <rects>
                <_>
                  4 17 10 3 -1.</_>
                <_>
                  4 18 10 1 3.</_></rects>
              <tilted>0</tilted></feature>
            <threshold>-0.0103577198460698</threshold>
            <left_node>1</left_node>
            <right_val>-0.5220993161201477</right_val></_>
          <_>
            <!-- node 1 -->
            <feature>
              <rects>
                <_>
                  5 6 8 10 -1.</_>
                <_>
                  9 6 4 5 2.</_>
                <_>
                  5 11 4 5 2.</_></rects>
              <tilted>0</tilted></feature>
            <threshold>-0.0263579506427050</threshold>
            <left_val>-0.8944805264472961</left_val>
            <right_val>0.1189567968249321</right_val></_></_>
        <_>
          <!-- tree 4 -->
          <_>
            <!-- root node -->
            <feature>
              <rects>
                <_>
                  0 3 3 2 -1.</_>
                <_>
                  1 3 1 2 3.</_></rects>
              <tilted>0</tilted></feature>
            <threshold>-3.7061050534248352e-03</threshold>
            <left_val>0.5881388783454895</left_val>
            <right_node>1</right_node></_>
          <_>
            <!-- node 1 -->
            <feature>
              <rects>
                <_>
                  0 5 2 8 -1.</_>
                <_>
                  1 5 1 8 2.</_></rects>
              <tilted>0</tilted></feature>
            <threshold>0.0186507105827332</threshold>
            <left_val>-0.5780931115150452</left_val>
            <right_val>0.7532042264938354</right_val></_></_>
        <_>
          <!-- tree 5 -->
          <_>
            <!-- root node -->
            <feature>
              <rects>
                <_>
                  7 16 4 2 -1.</_>
                <_>
                  7 17 4 1 2.</_></rects>
              <tilted>0</tilted></feature>
            <threshold>-2.3407819680869579e-03</threshold>
            <left_node>1</left_node>
            <right_val>-0.5013309717178345</right_val></_>
          <_>
            <!-- node 1 -->
            <feature>
              <rects>
                <_>
                  13 6 1 4 -1.</_>
                <_>
                  13 7 1 2 2.</_></rects>
              <tilted>0</tilted></feature>
            <threshold>4.9350241170031950e-05</threshold>
            <left_val>-0.5408145785331726</left_val>
            <right_val>0.2847793102264404</right_val></_></_>
        <_>
          <!-- tree 6 -->
          <_>
            <!-- root node -->
            <feature>
              <rects>
                <_>
                  2 14 5 6 -1.</_>
                <_>
                  2 17 5 3 2.</_></rects>
              <tilted>0</tilted></feature>
            <threshold>8.1056851195171475e-04</threshold>
            <left_node>1</left_node>
            <right_val>-0.6867486238479614</right_val></_>
          <_>
            <!-- node 1 -->
            <feature>
              <rects>
                <_>
                  2 12 1 6 -1.</_>
                <_>
                  2 14 1 2 3.</_></rects>
              <tilted>0</tilted></feature>
            <threshold>3.8335549179464579e-03</threshold>
            <left_val>0.4777379930019379</left_val>
            <right_val>-0.9197946190834045</right_val></_></_>
        <_>
          <!-- tree 7 -->
          <_>
            <!-- root node -->
            <feature>
              <rects>
                <_>
                  11 2 6 11 -1.</_>
                <_>
                  11 2 3 11 2.</_></rects>
              <tilted>1</tilted></feature>
            <threshold>-0.0644005089998245</threshold>
            <left_node>1</left_node>
            <right_val>-0.1756767034530640</right_val></_>
          <_>
            <!-- node 1 -->
            <feature>
              <rects>
                <_>
                  0 1 18 19 -1.</_>
                <_>
                  0 1 9 19 2.</_></rects>
              <tilted>0</tilted></feature>
            <threshold>-0.4844655990600586</threshold>
            <left_val>0.4342601895332336</left_val>
            <right_val>-0.2693907022476196</right_val></_></_>
        <_>
          <!-- tree 8 -->
          <_>
            <!-- root node -->
            <feature>
              <rects>
                <_>
                  5 0 2 4 -1.</_>
                <_>
                  5 2 2 2 2.</_></rects>
              <tilted>0</tilted></feature>
            <threshold>-5.3527601994574070e-03</threshold>
            <left_val>0.3552359938621521</left_val>
            <right_node>1</right_node></_>
          <_>
            <!-- node 1 -->
            <feature>
              <rects>
                <_>
                  1 0 16 3 -1.</_>
                <_>
                  1 1 16 1 3.</_></rects>
              <tilted>0</tilted></feature>
            <threshold>0.0331124886870384</threshold>
            <left_val>-0.7784945964813232</left_val>
            <right_val>0.5226793885231018</right_val></_></_></trees>
      <stage_threshold>-1.6300929784774780</stage_threshold>
      <parent>12</parent>
      <next>-1</next></_>
    <_>
      <!-- stage 14 -->
      <trees>
        <_>
          <!-- tree 0 -->
          <_>
            <!-- root node -->
            <feature>
              <rects>
                <_>
                  3 9 12 6 -1.</_>
                <_>
                  6 9 6 6 2.</_></rects>
              <tilted>0</tilted></feature>
            <threshold>-0.0933083593845367</threshold>
            <left_val>0.6763671040534973</left_val>
            <right_node>1</right_node></_>
          <_>
            <!-- node 1 -->
            <feature>
              <rects>
                <_>
                  1 1 16 19 -1.</_>
                <_>
                  9 1 8 19 2.</_></rects>
              <tilted>0</tilted></feature>
            <threshold>-0.6319615840911865</threshold>
            <left_val>0.7333974242210388</left_val>
            <right_val>-0.5635890960693359</right_val></_></_>
        <_>
          <!-- tree 1 -->
          <_>
            <!-- root node -->
            <feature>
              <rects>
                <_>
                  9 10 2 5 -1.</_>
                <_>
                  9 10 1 5 2.</_></rects>
              <tilted>0</tilted></feature>
            <threshold>0.0114878304302692</threshold>
            <left_val>-0.1067548021674156</left_val>
            <right_node>1</right_node></_>
          <_>
            <!-- node 1 -->
            <feature>
              <rects>
                <_>
                  9 0 2 9 -1.</_>
                <_>
                  6 3 2 3 3.</_></rects>
              <tilted>1</tilted></feature>
            <threshold>0.0119246700778604</threshold>
            <left_val>0.0461144410073757</left_val>
            <right_val>-0.5964829921722412</right_val></_></_>
        <_>
          <!-- tree 2 -->
          <_>
            <!-- root node -->
            <feature>
              <rects>
                <_>
                  7 10 2 5 -1.</_>
                <_>
                  8 10 1 5 2.</_></rects>
              <tilted>0</tilted></feature>
            <threshold>9.1183537733741105e-05</threshold>
            <left_val>-0.6340203881263733</left_val>
            <right_node>1</right_node></_>
          <_>
            <!-- node 1 -->
            <feature>
              <rects>
                <_>
                  9 0 9 2 -1.</_>
                <_>
                  12 3 3 2 3.</_></rects>
              <tilted>1</tilted></feature>
            <threshold>-0.0320471711456776</threshold>
            <left_val>0.5835583209991455</left_val>
            <right_val>-0.5422170162200928</right_val></_></_>
        <_>
          <!-- tree 3 -->
          <_>
            <!-- root node -->
            <feature>
              <rects>
                <_>
                  7 4 6 5 -1.</_>
                <_>
                  9 4 2 5 3.</_></rects>
              <tilted>0</tilted></feature>
            <threshold>0.0620796084403992</threshold>
            <left_val>-0.2658832073211670</left_val>
            <right_node>1</right_node></_>
          <_>
            <!-- node 1 -->
            <feature>
              <rects>
                <_>
                  6 9 10 7 -1.</_>
                <_>
                  6 9 5 7 2.</_></rects>
              <tilted>0</tilted></feature>
            <threshold>-0.1349308937788010</threshold>
            <left_val>0.4438855946063995</left_val>
            <right_val>-0.2716897130012512</right_val></_></_>
        <_>
          <!-- tree 4 -->
          <_>
            <!-- root node -->
            <feature>
              <rects>
                <_>
                  5 16 8 4 -1.</_>
                <_>
                  5 17 8 2 2.</_></rects>
              <tilted>0</tilted></feature>
            <threshold>-0.0104268798604608</threshold>
            <left_node>1</left_node>
            <right_val>-0.5512921214103699</right_val></_>
          <_>
            <!-- node 1 -->
            <feature>
              <rects>
                <_>
                  2 16 1 4 -1.</_>
                <_>
                  2 18 1 2 2.</_></rects>
              <tilted>0</tilted></feature>
            <threshold>9.6546352142468095e-04</threshold>
            <left_val>0.5409607887268066</left_val>
            <right_val>-0.6808096766471863</right_val></_></_>
        <_>
          <!-- tree 5 -->
          <_>
            <!-- root node -->
            <feature>
              <rects>
                <_>
                  10 14 2 1 -1.</_>
                <_>
                  10 14 1 1 2.</_></rects>
              <tilted>1</tilted></feature>
            <threshold>7.1059609763324261e-03</threshold>
            <left_node>1</left_node>
            <right_val>-0.6753218173980713</right_val></_>
          <_>
            <!-- node 1 -->
            <feature>
              <rects>
                <_>
                  8 15 4 4 -1.</_>
                <_>
                  9 15 2 4 2.</_></rects>
              <tilted>0</tilted></feature>
            <threshold>-7.4461880140006542e-03</threshold>
            <left_val>-0.8493314981460571</left_val>
            <right_val>0.1324159950017929</right_val></_></_>
        <_>
          <!-- tree 6 -->
          <_>
            <!-- root node -->
            <feature>
              <rects>
                <_>
                  2 12 14 8 -1.</_>
                <_>
                  9 12 7 8 2.</_></rects>
              <tilted>0</tilted></feature>
            <threshold>-0.1923869997262955</threshold>
            <left_val>0.6424143910408020</left_val>
            <right_node>1</right_node></_>
          <_>
            <!-- node 1 -->
            <feature>
              <rects>
                <_>
                  5 4 6 4 -1.</_>
                <_>
                  7 4 2 4 3.</_></rects>
              <tilted>0</tilted></feature>
            <threshold>-0.0355555191636086</threshold>
            <left_val>0.4818862080574036</left_val>
            <right_val>-0.6072254776954651</right_val></_></_></trees>
      <stage_threshold>-1.4859100580215454</stage_threshold>
      <parent>13</parent>
      <next>-1</next></_>
    <_>
      <!-- stage 15 -->
      <trees>
        <_>
          <!-- tree 0 -->
          <_>
            <!-- root node -->
            <feature>
              <rects>
                <_>
                  7 10 4 4 -1.</_>
                <_>
                  7 11 4 2 2.</_></rects>
              <tilted>0</tilted></feature>
            <threshold>5.7561430148780346e-03</threshold>
            <left_val>-0.4673291146755219</left_val>
            <right_node>1</right_node></_>
          <_>
            <!-- node 1 -->
            <feature>
              <rects>
                <_>
                  7 8 4 2 -1.</_>
                <_>
                  7 9 4 1 2.</_></rects>
              <tilted>0</tilted></feature>
            <threshold>3.0880048871040344e-03</threshold>
            <left_val>0.5871642827987671</left_val>
            <right_val>-0.9011048078536987</right_val></_></_>
        <_>
          <!-- tree 1 -->
          <_>
            <!-- root node -->
            <feature>
              <rects>
                <_>
                  8 16 4 3 -1.</_>
                <_>
                  9 16 2 3 2.</_></rects>
              <tilted>0</tilted></feature>
            <threshold>7.3169372044503689e-03</threshold>
            <left_val>0.1487563997507095</left_val>
            <right_node>1</right_node></_>
          <_>
            <!-- node 1 -->
            <feature>
              <rects>
                <_>
                  7 6 4 4 -1.</_>
                <_>
                  7 7 4 2 2.</_></rects>
              <tilted>0</tilted></feature>
            <threshold>2.8374809771776199e-03</threshold>
            <left_val>0.2083240002393723</left_val>
            <right_val>-0.7463433742523193</right_val></_></_>
        <_>
          <!-- tree 2 -->
          <_>
            <!-- root node -->
            <feature>
              <rects>
                <_>
                  5 16 4 2 -1.</_>
                <_>
                  5 16 2 1 2.</_>
                <_>
                  7 17 2 1 2.</_></rects>
              <tilted>0</tilted></feature>
            <threshold>-6.3822139054536819e-04</threshold>
            <left_node>1</left_node>
            <right_val>-0.5648196935653687</right_val></_>
          <_>
            <!-- node 1 -->
            <feature>
              <rects>
                <_>
                  7 12 4 4 -1.</_>
                <_>
                  6 13 4 2 2.</_></rects>
              <tilted>1</tilted></feature>
            <threshold>-8.3985738456249237e-03</threshold>
            <left_val>-0.9035874009132385</left_val>
            <right_val>0.4215849936008453</right_val></_></_>
        <_>
          <!-- tree 3 -->
          <_>
            <!-- root node -->
            <feature>
              <rects>
                <_>
                  8 16 4 3 -1.</_>
                <_>
                  9 16 2 3 2.</_></rects>
              <tilted>0</tilted></feature>
            <threshold>-5.4207239300012589e-03</threshold>
            <left_val>-0.8143231868743896</left_val>
            <right_node>1</right_node></_>
          <_>
            <!-- node 1 -->
            <feature>
              <rects>
                <_>
                  14 14 3 6 -1.</_>
                <_>
                  14 16 3 2 3.</_></rects>
              <tilted>0</tilted></feature>
            <threshold>0.0113981897011399</threshold>
            <left_val>0.0361091196537018</left_val>
            <right_val>-0.8815829157829285</right_val></_></_>
        <_>
          <!-- tree 4 -->
          <_>
            <!-- root node -->
            <feature>
              <rects>
                <_>
                  6 16 4 3 -1.</_>
                <_>
                  7 16 2 3 2.</_></rects>
              <tilted>0</tilted></feature>
            <threshold>-7.0112119428813457e-03</threshold>
            <left_val>-0.9300277233123779</left_val>
            <right_node>1</right_node></_>
          <_>
            <!-- node 1 -->
            <feature>
              <rects>
                <_>
                  8 14 1 2 -1.</_>
                <_>
                  8 14 1 1 2.</_></rects>
              <tilted>1</tilted></feature>
            <threshold>1.1521229753270745e-03</threshold>
            <left_val>0.3892130851745605</left_val>
            <right_val>-0.7855123281478882</right_val></_></_>
        <_>
          <!-- tree 5 -->
          <_>
            <!-- root node -->
            <feature>
              <rects>
                <_>
                  12 6 2 2 -1.</_>
                <_>
                  13 6 1 1 2.</_>
                <_>
                  12 7 1 1 2.</_></rects>
              <tilted>0</tilted></feature>
            <threshold>-7.1488477988168597e-04</threshold>
            <left_node>1</left_node>
            <right_val>-0.5868898034095764</right_val></_>
          <_>
            <!-- node 1 -->
            <feature>
              <rects>
                <_>
                  13 2 3 11 -1.</_>
                <_>
                  14 2 1 11 3.</_></rects>
              <tilted>0</tilted></feature>
            <threshold>-5.7332720607519150e-03</threshold>
            <left_val>-0.7061460018157959</left_val>
            <right_val>0.0734164416790009</right_val></_></_>
        <_>
          <!-- tree 6 -->
          <_>
            <!-- root node -->
            <feature>
              <rects>
                <_>
                  3 5 12 1 -1.</_>
                <_>
                  7 5 4 1 3.</_></rects>
              <tilted>0</tilted></feature>
            <threshold>0.0106356395408511</threshold>
            <left_val>-0.5743359923362732</left_val>
            <right_node>1</right_node></_>
          <_>
            <!-- node 1 -->
            <feature>
              <rects>
                <_>
                  2 7 12 1 -1.</_>
                <_>
                  5 7 6 1 2.</_></rects>
              <tilted>0</tilted></feature>
            <threshold>0.0176131296902895</threshold>
            <left_val>0.5529388189315796</left_val>
            <right_val>-0.8855522871017456</right_val></_></_></trees>
      <stage_threshold>-1.6192959547042847</stage_threshold>
      <parent>14</parent>
      <next>-1</next></_>
    <_>
      <!-- stage 16 -->
      <trees>
        <_>
          <!-- tree 0 -->
          <_>
            <!-- root node -->
            <feature>
              <rects>
                <_>
                  4 6 2 2 -1.</_>
                <_>
                  4 6 1 1 2.</_>
                <_>
                  5 7 1 1 2.</_></rects>
              <tilted>0</tilted></feature>
            <threshold>-1.5253459569066763e-03</threshold>
            <left_node>1</left_node>
            <right_val>-0.3811044991016388</right_val></_>
          <_>
            <!-- node 1 -->
            <feature>
              <rects>
                <_>
                  4 2 2 8 -1.</_>
                <_>
                  4 2 1 4 2.</_>
                <_>
                  5 6 1 4 2.</_></rects>
              <tilted>0</tilted></feature>
            <threshold>-6.9769518449902534e-03</threshold>
            <left_val>-0.7314494848251343</left_val>
            <right_val>0.6423320770263672</right_val></_></_>
        <_>
          <!-- tree 1 -->
          <_>
            <!-- root node -->
            <feature>
              <rects>
                <_>
                  9 2 2 2 -1.</_>
                <_>
                  9 3 2 1 2.</_></rects>
              <tilted>0</tilted></feature>
            <threshold>-6.6201493609696627e-05</threshold>
            <left_node>1</left_node>
            <right_val>-0.3221467137336731</right_val></_>
          <_>
            <!-- node 1 -->
            <feature>
              <rects>
                <_>
                  14 15 3 4 -1.</_>
                <_>
                  14 16 3 2 2.</_></rects>
              <tilted>0</tilted></feature>
            <threshold>-4.4562690891325474e-03</threshold>
            <left_val>-0.7915266156196594</left_val>
            <right_val>0.1187438964843750</right_val></_></_>
        <_>
          <!-- tree 2 -->
          <_>
            <!-- root node -->
            <feature>
              <rects>
                <_>
                  0 10 3 10 -1.</_>
                <_>
                  1 10 1 10 3.</_></rects>
              <tilted>0</tilted></feature>
            <threshold>-0.0277038905769587</threshold>
            <left_val>0.6350228786468506</left_val>
            <right_node>1</right_node></_>
          <_>
            <!-- node 1 -->
            <feature>
              <rects>
                <_>
                  0 9 2 6 -1.</_>
                <_>
                  1 9 1 6 2.</_></rects>
              <tilted>0</tilted></feature>
            <threshold>0.0121863596141338</threshold>
            <left_val>-0.5509518980979919</left_val>
            <right_val>0.4983668923377991</right_val></_></_>
        <_>
          <!-- tree 3 -->
          <_>
            <!-- root node -->
            <feature>
              <rects>
                <_>
                  4 5 10 4 -1.</_>
                <_>
                  4 7 10 2 2.</_></rects>
              <tilted>0</tilted></feature>
            <threshold>0.0111717302352190</threshold>
            <left_val>-0.7086982131004333</left_val>
            <right_node>1</right_node></_>
          <_>
            <!-- node 1 -->
            <feature>
              <rects>
                <_>
                  7 17 4 2 -1.</_>
                <_>
                  8 17 2 2 2.</_></rects>
              <tilted>0</tilted></feature>
            <threshold>-3.8313791155815125e-03</threshold>
            <left_val>-0.9417958855628967</left_val>
            <right_val>0.1152973026037216</right_val></_></_>
        <_>
          <!-- tree 4 -->
          <_>
            <!-- root node -->
            <feature>
              <rects>
                <_>
                  1 6 2 1 -1.</_>
                <_>
                  2 6 1 1 2.</_></rects>
              <tilted>0</tilted></feature>
            <threshold>-4.4411619455786422e-05</threshold>
            <left_node>1</left_node>
            <right_val>-0.6378183960914612</right_val></_>
          <_>
            <!-- node 1 -->
            <feature>
              <rects>
                <_>
                  1 16 3 3 -1.</_>
                <_>
                  1 17 3 1 3.</_></rects>
              <tilted>0</tilted></feature>
            <threshold>3.4721950069069862e-03</threshold>
            <left_val>0.4719671010971069</left_val>
            <right_val>-0.8849744796752930</right_val></_></_>
        <_>
          <!-- tree 5 -->
          <_>
            <!-- root node -->
            <feature>
              <rects>
                <_>
                  5 12 9 3 -1.</_>
                <_>
                  5 13 9 1 3.</_></rects>
              <tilted>0</tilted></feature>
            <threshold>-6.6675199195742607e-03</threshold>
            <left_node>1</left_node>
            <right_val>-0.4091235101222992</right_val></_>
          <_>
            <!-- node 1 -->
            <feature>
              <rects>
                <_>
                  3 10 12 9 -1.</_>
                <_>
                  3 13 12 3 3.</_></rects>
              <tilted>0</tilted></feature>
            <threshold>-0.0538006685674191</threshold>
            <left_val>-0.8091356754302979</left_val>
            <right_val>0.1020447984337807</right_val></_></_>
        <_>
          <!-- tree 6 -->
          <_>
            <!-- root node -->
            <feature>
              <rects>
                <_>
                  5 4 6 7 -1.</_>
                <_>
                  7 4 2 7 3.</_></rects>
              <tilted>0</tilted></feature>
            <threshold>-0.0727107524871826</threshold>
            <left_val>0.8024585843086243</left_val>
            <right_node>1</right_node></_>
          <_>
            <!-- node 1 -->
            <feature>
              <rects>
                <_>
                  9 7 6 1 -1.</_>
                <_>
                  11 9 2 1 3.</_></rects>
              <tilted>1</tilted></feature>
            <threshold>-0.0170998107641935</threshold>
            <left_val>0.4654831886291504</left_val>
            <right_val>-0.6429529190063477</right_val></_></_>
        <_>
          <!-- tree 7 -->
          <_>
            <!-- root node -->
            <feature>
              <rects>
                <_>
                  5 17 8 3 -1.</_>
                <_>
                  5 18 8 1 3.</_></rects>
              <tilted>0</tilted></feature>
            <threshold>-0.0150190498679876</threshold>
            <left_node>1</left_node>
            <right_val>-0.3646275103092194</right_val></_>
          <_>
            <!-- node 1 -->
            <feature>
              <rects>
                <_>
                  7 6 4 3 -1.</_>
                <_>
                  7 7 4 1 3.</_></rects>
              <tilted>0</tilted></feature>
            <threshold>2.1194349974393845e-03</threshold>
            <left_val>0.2311040014028549</left_val>
            <right_val>-0.7319182157516479</right_val></_></_></trees>
      <stage_threshold>-1.9576469659805298</stage_threshold>
      <parent>15</parent>
      <next>-1</next></_></stages></haarcascade_3>
</opencv_storage>
